{"learner":{"attributes":{},"feature_names":["SKU","product_name","avg_price","avg_paid","avg_discount_pct","avg_discount_rub","promo_count","days_since_sale","dow","dom","weekofyear","month","is_weekend","lag_1","lag_2","lag_3","lag_7","lag_14","roll_mean_3","roll_mean_7","roll_mean_14","roll_mean_28","roll_std_3","roll_std_7","roll_std_14","roll_std_28","roll_sum_3","roll_sum_7","roll_sum_14","roll_sum_28"],"feature_types":["int","int","float","float","float","float","float","float","int","int","int","int","int","float","float","float","float","float","float","float","float","float","float","float","float","float","float","float","float","float"],"gradient_booster":{"model":{"cats":{"enc":[],"feature_segments":[],"sorted_idx":[]},"gbtree_model_param":{"num_parallel_tree":"1","num_trees":"300"},"iteration_indptr":[0,1,2,3,4,5,6,7,8,9,10,11,12,13,14,15,16,17,18,19,20,21,22,23,24,25,26,27,28,29,30,31,32,33,34,35,36,37,38,39,40,41,42,43,44,45,46,47,48,49,50,51,52,53,54,55,56,57,58,59,60,61,62,63,64,65,66,67,68,69,70,71,72,73,74,75,76,77,78,79,80,81,82,83,84,85,86,87,88,89,90,91,92,93,94,95,96,97,98,99,100,101,102,103,104,105,106,107,108,109,110,111,112,113,114,115,116,117,118,119,120,121,122,123,124,125,126,127,128,129,130,131,132,133,134,135,136,137,138,139,140,141,142,143,144,145,146,147,148,149,150,151,152,153,154,155,156,157,158,159,160,161,162,163,164,165,166,167,168,169,170,171,172,173,174,175,176,177,178,179,180,181,182,183,184,185,186,187,188,189,190,191,192,193,194,195,196,197,198,199,200,201,202,203,204,205,206,207,208,209,210,211,212,213,214,215,216,217,218,219,220,221,222,223,224,225,226,227,228,229,230,231,232,233,234,235,236,237,238,239,240,241,242,243,244,245,246,247,248,249,250,251,252,253,254,255,256,257,258,259,260,261,262,263,264,265,266,267,268,269,270,271,272,273,274,275,276,277,278,279,280,281,282,283,284,285,286,287,288,289,290,291,292,293,294,295,296,297,298,299,300],"tree_info":[0,0,0,0,0,0,0,0,0,0,0,0,0,0,0,0,0,0,0,0,0,0,0,0,0,0,0,0,0,0,0,0,0,0,0,0,0,0,0,0,0,0,0,0,0,0,0,0,0,0,0,0,0,0,0,0,0,0,0,0,0,0,0,0,0,0,0,0,0,0,0,0,0,0,0,0,0,0,0,0,0,0,0,0,0,0,0,0,0,0,0,0,0,0,0,0,0,0,0,0,0,0,0,0,0,0,0,0,0,0,0,0,0,0,0,0,0,0,0,0,0,0,0,0,0,0,0,0,0,0,0,0,0,0,0,0,0,0,0,0,0,0,0,0,0,0,0,0,0,0,0,0,0,0,0,0,0,0,0,0,0,0,0,0,0,0,0,0,0,0,0,0,0,0,0,0,0,0,0,0,0,0,0,0,0,0,0,0,0,0,0,0,0,0,0,0,0,0,0,0,0,0,0,0,0,0,0,0,0,0,0,0,0,0,0,0,0,0,0,0,0,0,0,0,0,0,0,0,0,0,0,0,0,0,0,0,0,0,0,0,0,0,0,0,0,0,0,0,0,0,0,0,0,0,0,0,0,0,0,0,0,0,0,0,0,0,0,0,0,0,0,0,0,0,0,0,0,0,0,0,0,0,0,0,0,0,0,0,0,0,0,0,0,0,0,0,0,0,0,0],"trees":[{"base_weights":[-1.0683597E0,1.6055722E2,-2.2350187E1,1.7036993E2,5.6315125E1,-2.9821463E1,-9.59571E0,4.344706E0,8.747209E0,3.9647057E0,-3.7745096E-2,-1.4941369E0,-2.7830884E-1,-6.005631E-1,3.3532476E-1],"categories":[],"categories_nodes":[],"categories_segments":[],"categories_sizes":[],"default_left":[0,0,0,0,0,0,0,0,0,0,0,0,0,0,0],"id":0,"left_children":[1,3,5,7,9,11,13,-1,-1,-1,-1,-1,-1,-1,-1],"loss_changes":[1.891977E6,5.5871E4,4.602586E4,6.945125E3,9.239742E3,2.8846875E2,7.208121E3,0E0,0E0,0E0,0E0,0E0,0E0,0E0,0E0],"parents":[2147483647,0,0,1,1,2,2,3,3,4,4,5,5,6,6],"right_children":[2,4,6,8,10,12,14,-1,-1,-1,-1,-1,-1,-1,-1],"split_conditions":[1E0,1.6E1,1E0,3.98E2,1.8E1,3.695235E0,7.22E1,4.344706E0,8.747209E0,3.9647057E0,-3.7745096E-2,-1.4941369E0,-2.7830884E-1,-6.005631E-1,3.3532476E-1],"split_indices":[0,10,20,29,9,25,4,0,0,0,0,0,0,0,0],"split_type":[0,0,0,0,0,0,0,0,0,0,0,0,0,0,0],"sum_hessian":[5.48E2,6.3E1,4.85E2,5.7E1,6E0,3.05E2,1.8E2,4E0,5.3E1,4E0,2E0,3.04E2,1E0,1.57E2,2.3E1],"tree_param":{"num_deleted":"0","num_feature":"30","num_nodes":"15","size_leaf_vector":"1"}},{"base_weights":[-2.1134241E-1,-2.17839E1,1.524096E2,-2.8325964E1,-9.128023E0,1.6994185E2,9.084761E1,-1.4191073E0,-2.713511E-1,-6.152511E-1,-5.1255424E-2,4.619537E0,8.911444E0,5.456056E0,2.0892158E-1],"categories":[],"categories_nodes":[],"categories_segments":[],"categories_sizes":[],"default_left":[0,0,0,0,0,0,0,0,0,0,0,0,0,0,0],"id":1,"left_children":[1,3,5,7,9,11,13,-1,-1,-1,-1,-1,-1,-1,-1],"loss_changes":[1.7812291E6,3.898653E4,5.6875625E4,2.4734375E2,4.1834893E3,1.6309375E4,2.6467812E4,0E0,0E0,0E0,0E0,0E0,0E0,0E0,0E0],"parents":[2147483647,0,0,1,1,2,2,3,3,4,4,5,5,6,6],"right_children":[2,4,6,8,10,12,14,-1,-1,-1,-1,-1,-1,-1,-1],"split_conditions":[1.1333333E1,1E0,4E0,3.695235E0,6.06E2,4.01E2,1.7E1,-1.4191073E0,-2.713511E-1,-6.152511E-1,-5.1255424E-2,4.619537E0,8.911444E0,5.456056E0,2.0892158E-1],"split_indices":[18,20,11,25,5,29,9,0,0,0,0,0,0,0,0],"split_type":[0,0,0,0,0,0,0,0,0,0,0,0,0,0,0],"sum_hessian":[5.39E2,4.73E2,6.6E1,3.11E2,1.62E2,5E1,1.6E1,3.1E2,1E0,1.16E2,4.6E1,6E0,4.4E1,1.3E1,3E0],"tree_param":{"num_deleted":"0","num_feature":"30","num_nodes":"15","size_leaf_vector":"1"}},{"base_weights":[-7.2524476E-1,1.4646867E2,-2.0308792E1,1.6284088E2,7.636503E1,-2.6893768E1,-8.322444E0,4.367621E0,8.457359E0,5.1466346E0,3.978343E-1,-1.3473277E0,-2.6456735E-1,-5.366632E-1,3.1412515E-1],"categories":[],"categories_nodes":[],"categories_segments":[],"categories_sizes":[],"default_left":[0,0,0,0,0,0,0,0,0,0,0,0,0,0,0],"id":2,"left_children":[1,3,5,7,9,11,13,-1,-1,-1,-1,-1,-1,-1,-1],"loss_changes":[1.5710976E6,6.1020625E4,3.7741406E4,9.50325E3,2.4625305E4,2.1092188E2,6.1235312E3,0E0,0E0,0E0,0E0,0E0,0E0,0E0,0E0],"parents":[2147483647,0,0,1,1,2,2,3,3,4,4,5,5,6,6],"right_children":[2,4,6,8,10,12,14,-1,-1,-1,-1,-1,-1,-1,-1],"split_conditions":[1E0,1.5E1,1E0,4.01E2,1.6E1,3.695235E0,7.22E1,4.367621E0,8.457359E0,5.1466346E0,3.978343E-1,-1.3473277E0,-2.6456735E-1,-5.366632E-1,3.1412515E-1],"split_indices":[0,10,20,29,9,25,4,0,0,0,0,0,0,0,0],"split_type":[0,0,0,0,0,0,0,0,0,0,0,0,0,0,0],"sum_hessian":[5.43E2,6.3E1,4.8E2,5E1,1.3E1,3.09E2,1.71E2,5E0,4.5E1,9E0,4E0,3.08E2,1E0,1.47E2,2.4E1],"tree_param":{"num_deleted":"0","num_feature":"30","num_nodes":"15","size_leaf_vector":"1"}},{"base_weights":[1.0588145E0,1.3833504E2,-1.9197224E1,1.4735817E2,4.773021E1,-2.5466936E1,-7.530385E0,4.1189704E0,7.5700035E0,3.8894577E0,-8.880117E-2,-4.2674533E-1,-1.2800764E0,-4.9138895E-1,3.523185E-1],"categories":[],"categories_nodes":[],"categories_segments":[],"categories_sizes":[],"default_left":[0,0,0,0,0,0,0,0,0,0,0,0,0,0,0],"id":3,"left_children":[1,3,5,7,9,11,13,-1,-1,-1,-1,-1,-1,-1,-1],"loss_changes":[1.5570512E6,5.1829375E4,3.5504297E4,4.59925E3,1.2042996E4,5.0389062E2,5.8292812E3,0E0,0E0,0E0,0E0,0E0,0E0,0E0,0E0],"parents":[2147483647,0,0,1,1,2,2,3,3,4,4,5,5,6,6],"right_children":[2,4,6,8,10,12,14,-1,-1,-1,-1,-1,-1,-1,-1],"split_conditions":[1E0,1.6E1,1.1428572E0,7.5256805E0,1.8E1,2E0,7.22E1,4.1189704E0,7.5700035E0,3.8894577E0,-8.880117E-2,-4.2674533E-1,-1.2800764E0,-4.9138895E-1,3.523185E-1],"split_indices":[0,10,19,25,9,0,4,0,0,0,0,0,0,0,0],"split_type":[0,0,0,0,0,0,0,0,0,0,0,0,0,0,0],"sum_hessian":[5.58E2,7.1E1,4.87E2,6.4E1,7E0,3.16E2,1.71E2,5E0,5.9E1,4E0,3E0,3E0,3.13E2,1.48E2,2.3E1],"tree_param":{"num_deleted":"0","num_feature":"30","num_nodes":"15","size_leaf_vector":"1"}},{"base_weights":[9.3172735E-1,1.3036688E2,-1.847217E1,1.4414116E2,7.22872E1,-1.2178501E0,-7.9350147E0,3.755275E0,7.461844E0,4.6751094E0,3.4569034E-1,-5.7844466E-1,2.4454845E-2],"categories":[],"categories_nodes":[],"categories_segments":[],"categories_sizes":[],"default_left":[0,0,0,0,0,0,0,0,0,0,0,0,0],"id":4,"left_children":[1,3,5,7,9,-1,11,-1,-1,-1,-1,-1,-1],"loss_changes":[1.4063628E6,4.7980625E4,3.0005297E4,9.195125E3,2.1543867E4,0E0,5.3934062E3,0E0,0E0,0E0,0E0,0E0,0E0],"parents":[2147483647,0,0,1,1,2,2,3,3,4,4,6,6],"right_children":[2,4,6,8,10,-1,12,-1,-1,-1,-1,-1,-1],"split_conditions":[1E0,1.5E1,9.285714E-1,3.98E2,1.7E1,-1.2178501E0,1.3E1,3.755275E0,7.461844E0,4.6751094E0,3.4569034E-1,-5.7844466E-1,2.4454845E-2],"split_indices":[0,10,20,29,9,0,10,0,0,0,0,0,0],"split_type":[0,0,0,0,0,0,0,0,0,0,0,0,0],"sum_hessian":[5.58E2,7.2E1,4.86E2,5.7E1,1.5E1,3.11E2,1.75E2,5E0,5.2E1,1.1E1,4E0,1.22E2,5.3E1],"tree_param":{"num_deleted":"0","num_feature":"30","num_nodes":"13","size_leaf_vector":"1"}},{"base_weights":[7.9951006E-1,1.23989586E2,-1.774415E1,1.3702505E2,6.898664E1,-2.3124193E1,-7.63922E0,3.7978966E0,7.067647E0,3.3186275E-1,4.4608335E0,-1.1584122E0,-2.3120733E-1,-5.088698E-1,1.6032296E-1],"categories":[],"categories_nodes":[],"categories_segments":[],"categories_sizes":[],"default_left":[0,0,0,0,0,0,0,0,0,0,0,0,0,0,0],"id":5,"left_children":[1,3,5,7,9,11,13,-1,-1,-1,-1,-1,-1,-1,-1],"loss_changes":[1.274608E6,4.2887375E4,2.6190375E4,4.592E3,1.9589125E4,1.5039062E2,4.7124336E3,0E0,0E0,0E0,0E0,0E0,0E0,0E0,0E0],"parents":[2147483647,0,0,1,1,2,2,3,3,4,4,5,5,6,6],"right_children":[2,4,6,8,10,12,14,-1,-1,-1,-1,-1,-1,-1,-1],"split_conditions":[1E0,1.5E1,1E0,4.01E2,2.5571428E1,3.695235E0,6E0,3.7978966E0,7.067647E0,3.3186275E-1,4.4608335E0,-1.1584122E0,-2.3120733E-1,-5.088698E-1,1.6032296E-1],"split_indices":[0,10,20,29,20,25,6,0,0,0,0,0,0,0,0],"split_type":[0,0,0,0,0,0,0,0,0,0,0,0,0,0,0],"sum_hessian":[5.56E2,7.2E1,4.84E2,5.7E1,1.5E1,3.15E2,1.69E2,5E0,5.2E1,4E0,1.1E1,3.14E2,1E0,1.37E2,3.2E1],"tree_param":{"num_deleted":"0","num_feature":"30","num_nodes":"15","size_leaf_vector":"1"}},{"base_weights":[2.0427716E-1,1.1850291E2,-1.6353146E1,1.327686E2,7.07074E1,-1.098717E0,-7.037322E0,3.8829618E0,6.980771E0,4.431694E0,3.1858826E-1,-4.7232506E-1,1.3288927E-1],"categories":[],"categories_nodes":[],"categories_segments":[],"categories_sizes":[],"default_left":[0,0,0,0,0,0,0,0,0,0,0,0,0],"id":6,"left_children":[1,3,5,7,9,-1,11,-1,-1,-1,-1,-1,-1],"loss_changes":[1.1007801E6,3.7658938E4,2.5661828E4,8.778375E3,2.0194852E4,0E0,4.39291E3,0E0,0E0,0E0,0E0,0E0,0E0],"parents":[2147483647,0,0,1,1,2,2,3,3,4,4,6,6],"right_children":[2,4,6,8,10,-1,12,-1,-1,-1,-1,-1,-1],"split_conditions":[1E0,4E0,1E0,4.16E2,1.7E1,-1.098717E0,6E0,3.8829618E0,6.980771E0,4.431694E0,3.1858826E-1,-4.7232506E-1,1.3288927E-1],"split_indices":[0,11,20,29,9,0,6,0,0,0,0,0,0],"split_type":[0,0,0,0,0,0,0,0,0,0,0,0,0],"sum_hessian":[5.6E2,6.8E1,4.92E2,5.1E1,1.7E1,3.06E2,1.86E2,7E0,4.4E1,1.3E1,4E0,1.49E2,3.7E1],"tree_param":{"num_deleted":"0","num_feature":"30","num_nodes":"13","size_leaf_vector":"1"}},{"base_weights":[-2.65763E-2,1.15041405E2,-1.5760307E1,1.2877142E2,7.357761E1,-2.0783949E1,-6.434999E0,2.9561377E0,6.601423E0,4.1868167E0,7.274147E-1,-3.5225594E-1,-1.0446215E0,-4.1580388E-1,2.794932E-1],"categories":[],"categories_nodes":[],"categories_segments":[],"categories_sizes":[],"default_left":[0,0,0,0,0,0,0,0,0,0,0,0,0,0,0],"id":7,"left_children":[1,3,5,7,9,11,13,-1,-1,-1,-1,-1,-1,-1,-1],"loss_changes":[1.00842256E6,2.8668375E4,2.282129E4,3.309625E3,1.0175375E4,3.2675E2,3.9596958E3,0E0,0E0,0E0,0E0,0E0,0E0,0E0,0E0],"parents":[2147483647,0,0,1,1,2,2,3,3,4,4,5,5,6,6],"right_children":[2,4,6,8,10,12,14,-1,-1,-1,-1,-1,-1,-1,-1],"split_conditions":[1E0,4E0,1.1428572E0,3.98E2,1.7E1,2E0,7.22E1,2.9561377E0,6.601423E0,4.1868167E0,7.274147E-1,-3.5225594E-1,-1.0446215E0,-4.1580388E-1,2.794932E-1],"split_indices":[0,11,19,29,9,0,4,0,0,0,0,0,0,0,0],"split_type":[0,0,0,0,0,0,0,0,0,0,0,0,0,0,0],"sum_hessian":[5.55E2,6.6E1,4.89E2,4.8E1,1.8E1,3.17E2,1.72E2,3E0,4.5E1,1.5E1,3E0,3E0,3.14E2,1.49E2,2.3E1],"tree_param":{"num_deleted":"0","num_feature":"30","num_nodes":"15","size_leaf_vector":"1"}},{"base_weights":[3.920843E-1,1.0696815E2,-1.5183524E1,1.2092386E2,6.603269E1,-1.9849632E1,-6.7396584E0,3.689886E0,6.398764E0,4.0405593E0,2.767482E-1,-7.901516E-1,-1.0106803E0,-3.8782588E-1,7.537755E-1],"categories":[],"categories_nodes":[],"categories_segments":[],"categories_sizes":[],"default_left":[0,0,0,0,0,0,0,0,0,0,0,0,0,0,0],"id":8,"left_children":[1,3,5,7,9,11,13,-1,-1,-1,-1,-1,-1,-1,-1],"loss_changes":[9.112971E5,3.2004812E4,1.873882E4,7.503375E3,1.7434031E4,1.3419531E2,3.9323994E3,0E0,0E0,0E0,0E0,0E0,0E0,0E0,0E0],"parents":[2147483647,0,0,1,1,2,2,3,3,4,4,5,5,6,6],"right_children":[2,4,6,8,10,12,14,-1,-1,-1,-1,-1,-1,-1,-1],"split_conditions":[1E0,4E0,1E0,4.38E2,1.7E1,3E0,7.357143E0,3.689886E0,6.398764E0,4.0405593E0,2.767482E-1,-7.901516E-1,-1.0106803E0,-3.8782588E-1,7.537755E-1],"split_indices":[0,11,20,29,9,0,20,0,0,0,0,0,0,0,0],"split_type":[0,0,0,0,0,0,0,0,0,0,0,0,0,0,0],"sum_hessian":[5.47E2,6.9E1,4.78E2,5E1,1.9E1,3.07E2,1.71E2,8E0,4.2E1,1.5E1,4E0,2.9E1,2.78E2,1.64E2,7E0],"tree_param":{"num_deleted":"0","num_feature":"30","num_nodes":"15","size_leaf_vector":"1"}},{"base_weights":[5.219664E-1,1.02242035E2,-1.434427E1,1.1629703E2,6.3909107E1,-1.8770718E1,-5.9620996E0,6.131477E0,3.9352024E0,3.763694E0,-1.6048245E-1,-9.4079536E-1,-1.1679268E-1,-3.4718695E-1,7.207978E-1],"categories":[],"categories_nodes":[],"categories_segments":[],"categories_sizes":[],"default_left":[0,0,0,0,0,0,0,0,0,0,0,0,0,0,0],"id":9,"left_children":[1,3,5,7,9,11,13,-1,-1,-1,-1,-1,-1,-1,-1],"loss_changes":[8.301492E5,3.0281438E4,1.7660547E4,2.2514375E3,1.62601875E4,1.8850781E2,3.440753E3,0E0,0E0,0E0,0E0,0E0,0E0,0E0,0E0],"parents":[2147483647,0,0,1,1,2,2,3,3,4,4,5,5,6,6],"right_children":[2,4,6,8,10,12,14,-1,-1,-1,-1,-1,-1,-1,-1],"split_conditions":[1E0,4E0,1.1428572E0,3.2892857E1,1.8E1,4E0,7.357143E0,6.131477E0,3.9352024E0,3.763694E0,-1.6048245E-1,-9.4079536E-1,-1.1679268E-1,-3.4718695E-1,7.207978E-1],"split_indices":[0,11,19,21,9,14,20,0,0,0,0,0,0,0,0],"split_type":[0,0,0,0,0,0,0,0,0,0,0,0,0,0,0],"sum_hessian":[5.47E2,6.9E1,4.78E2,4.9E1,2E1,3.12E2,1.66E2,4E1,9E0,1.7E1,3E0,3.11E2,1E0,1.59E2,7E0],"tree_param":{"num_deleted":"0","num_feature":"30","num_nodes":"15","size_leaf_vector":"1"}},{"base_weights":[1.0102061E0,9.7532455E1,-1.3688676E1,1.0747707E2,5.12518E1,-1.7929266E1,-5.912757E0,3.1085002E0,5.6144004E0,3.2547257E0,-1.5446429E-1,-7.061247E-1,-9.126288E-1,-3.8943294E-1,3.6583897E-1],"categories":[],"categories_nodes":[],"categories_segments":[],"categories_sizes":[],"default_left":[0,0,0,0,0,0,0,0,0,0,0,0,0,0,0],"id":10,"left_children":[1,3,5,7,9,11,13,-1,-1,-1,-1,-1,-1,-1,-1],"loss_changes":[7.9442706E5,2.8549625E4,1.5919594E4,6.0971875E3,1.148452E4,1.286875E2,4.350382E3,0E0,0E0,0E0,0E0,0E0,0E0,0E0,0E0],"parents":[2147483647,0,0,1,1,2,2,3,3,4,4,5,5,6,6],"right_children":[2,4,6,8,10,12,14,-1,-1,-1,-1,-1,-1,-1,-1],"split_conditions":[1E0,1.5E1,1E0,4.16E2,1.8E1,3E0,7.22E1,3.1085002E0,5.6144004E0,3.2547257E0,-1.5446429E-1,-7.061247E-1,-9.126288E-1,-3.8943294E-1,3.6583897E-1],"split_indices":[0,10,20,29,9,0,4,0,0,0,0,0,0,0,0],"split_type":[0,0,0,0,0,0,0,0,0,0,0,0,0,0,0],"sum_hessian":[5.58E2,7.3E1,4.85E2,5.9E1,1.4E1,3.13E2,1.72E2,7E0,5.2E1,1.1E1,3E0,2.8E1,2.85E2,1.51E2,2.1E1],"tree_param":{"num_deleted":"0","num_feature":"30","num_nodes":"15","size_leaf_vector":"1"}},{"base_weights":[5.0600904E-1,9.1181625E1,-1.2750608E1,1.0311484E2,5.6789513E1,-1.696188E1,-5.3741236E0,3.101304E0,5.4732227E0,3.589833E0,4.9033675E-1,-1.9410604E-1,-8.5183185E-1,-4.2211914E-1,5.0908305E-2],"categories":[],"categories_nodes":[],"categories_segments":[],"categories_sizes":[],"default_left":[0,0,0,0,0,0,0,0,0,0,0,0,0,0,0],"id":11,"left_children":[1,3,5,7,9,11,13,-1,-1,-1,-1,-1,-1,-1,-1],"loss_changes":[6.502707E5,2.2462312E4,1.4571234E4,6.25525E3,1.3397453E4,2.2719531E2,3.4016802E3,0E0,0E0,0E0,0E0,0E0,0E0,0E0,0E0],"parents":[2147483647,0,0,1,1,2,2,3,3,4,4,5,5,6,6],"right_children":[2,4,6,8,10,12,14,-1,-1,-1,-1,-1,-1,-1,-1],"split_conditions":[1E0,4E0,1.1428572E0,4.38E2,1.6E1,2E0,2.7305758E0,3.101304E0,5.4732227E0,3.589833E0,4.9033675E-1,-1.9410604E-1,-8.5183185E-1,-4.2211914E-1,5.0908305E-2],"split_indices":[0,11,19,29,9,0,24,0,0,0,0,0,0,0,0],"split_type":[0,0,0,0,0,0,0,0,0,0,0,0,0,0,0],"sum_hessian":[5.39E2,6.8E1,4.71E2,4.9E1,1.9E1,2.99E2,1.72E2,8E0,4.1E1,1.4E1,5E0,2E0,2.97E2,1.16E2,5.6E1],"tree_param":{"num_deleted":"0","num_feature":"30","num_nodes":"15","size_leaf_vector":"1"}},{"base_weights":[4.095565E-1,8.865389E1,-1.2329499E1,1.00685905E2,5.1691437E1,-1.613827E1,-4.9386926E0,5.3506474E0,2.9634683E0,3.110944E0,-1.6705953E-1,-8.1226456E-1,-1.8780111E-1,-4.313037E-1,-1.11964485E-2],"categories":[],"categories_nodes":[],"categories_segments":[],"categories_sizes":[],"default_left":[0,0,0,0,0,0,0,0,0,0,0,0,0,0,0],"id":12,"left_children":[1,3,5,7,9,11,13,-1,-1,-1,-1,-1,-1,-1,-1],"loss_changes":[6.148787E5,2.5481938E4,1.3375945E4,7.0216562E3,1.1215586E4,3.5641406E2,2.8492297E3,0E0,0E0,0E0,0E0,0E0,0E0,0E0,0E0],"parents":[2147483647,0,0,1,1,2,2,3,3,4,4,5,5,6,6],"right_children":[2,4,6,8,10,12,14,-1,-1,-1,-1,-1,-1,-1,-1],"split_conditions":[1E0,4E0,1.2149858E0,2.46E2,1.8E1,2E0,5.828E1,5.3506474E0,2.9634683E0,3.110944E0,-1.6705953E-1,-8.1226456E-1,-1.8780111E-1,-4.313037E-1,-1.11964485E-2],"split_indices":[0,11,23,2,9,18,4,0,0,0,0,0,0,0,0],"split_type":[0,0,0,0,0,0,0,0,0,0,0,0,0,0,0],"sum_hessian":[5.45E2,6.8E1,4.77E2,5E1,1.8E1,3.14E2,1.63E2,4.2E1,8E0,1.5E1,3E0,3.11E2,3E0,9.1E1,7.2E1],"tree_param":{"num_deleted":"0","num_feature":"30","num_nodes":"15","size_leaf_vector":"1"}},{"base_weights":[3.0982053E-1,8.44531E1,-1.1512603E1,9.0923325E1,1.5080658E1,-1.5453849E1,-4.6503825E0,4.767516E0,2.9183962E0,1.39807E0,-5.707064E-1,-5.8860475E-1,-7.862243E-1,8.775657E-1,-2.8309318E-1],"categories":[],"categories_nodes":[],"categories_segments":[],"categories_sizes":[],"default_left":[0,0,0,0,0,0,0,0,0,0,0,0,0,0,0],"id":13,"left_children":[1,3,5,7,9,11,13,-1,-1,-1,-1,-1,-1,-1,-1],"loss_changes":[5.490947E5,2.9150938E4,1.3018254E4,3.3702188E3,2.7080623E3,1.2078125E2,4.0966455E3,0E0,0E0,0E0,0E0,0E0,0E0,0E0,0E0],"parents":[2147483647,0,0,1,1,2,2,3,3,4,4,5,5,6,6],"right_children":[2,4,6,8,10,12,14,-1,-1,-1,-1,-1,-1,-1,-1],"split_conditions":[1E0,1.6E1,1E0,3.2892857E1,1.9E1,3E0,1.9612651E0,4.767516E0,2.9183962E0,1.39807E0,-5.707064E-1,-5.8860475E-1,-7.862243E-1,8.775657E-1,-2.8309318E-1],"split_indices":[0,10,20,21,9,0,25,0,0,0,0,0,0,0,0],"split_type":[0,0,0,0,0,0,0,0,0,0,0,0,0,0,0],"sum_hessian":[5.5E2,6.7E1,4.83E2,6.1E1,6E0,3.06E2,1.77E2,5.2E1,9E0,4E0,2E0,2.4E1,2.82E2,7E0,1.7E2],"tree_param":{"num_deleted":"0","num_feature":"30","num_nodes":"15","size_leaf_vector":"1"}},{"base_weights":[7.50186E-1,8.066231E1,-1.076273E1,8.9911125E1,5.159114E1,-1.4637242E1,-3.8249364E0,2.1159854E0,4.6530523E0,3.0918865E0,5.2665704E-1,-5.6847924E-1,-7.4686074E-1,-3.4598327E-1,1.963245E-1],"categories":[],"categories_nodes":[],"categories_segments":[],"categories_sizes":[],"default_left":[0,0,0,0,0,0,0,0,0,0,0,0,0,0,0],"id":14,"left_children":[1,3,5,7,9,11,13,-1,-1,-1,-1,-1,-1,-1,-1],"loss_changes":[5.041199E5,1.3913719E4,1.2819805E4,3.7070312E3,7.342039E3,1.3109375E2,4.1771914E3,0E0,0E0,0E0,0E0,0E0,0E0,0E0,0E0],"parents":[2147483647,0,0,1,1,2,2,3,3,4,4,5,5,6,6],"right_children":[2,4,6,8,10,12,14,-1,-1,-1,-1,-1,-1,-1,-1],"split_conditions":[1E0,4E0,1E0,7E0,1.6E1,3E0,1.3E1,2.1159854E0,4.6530523E0,3.0918865E0,5.2665704E-1,-5.6847924E-1,-7.4686074E-1,-3.4598327E-1,1.963245E-1],"split_indices":[0,11,20,10,9,0,10,0,0,0,0,0,0,0,0],"split_type":[0,0,0,0,0,0,0,0,0,0,0,0,0,0,0],"sum_hessian":[5.46E2,6.8E1,4.78E2,5E1,1.8E1,3.06E2,1.72E2,4E0,4.6E1,1.4E1,4E0,2.9E1,2.77E2,1.23E2,4.9E1],"tree_param":{"num_deleted":"0","num_feature":"30","num_nodes":"15","size_leaf_vector":"1"}},{"base_weights":[3.7594292E-1,7.648102E1,-1.0652294E1,8.7066284E1,4.713198E1,-1.3878459E1,-4.497876E0,2.4709616E0,4.5966215E0,2.875323E0,1.2161782E-1,-2.325603E-1,-6.975441E-1,-3.8310727E-1,5.6883015E-2],"categories":[],"categories_nodes":[],"categories_segments":[],"categories_sizes":[],"default_left":[0,0,0,0,0,0,0,0,0,0,0,0,0,0,0],"id":15,"left_children":[1,3,5,7,9,11,13,-1,-1,-1,-1,-1,-1,-1,-1],"loss_changes":[4.7082538E5,1.7953781E4,9.666605E3,4.7997812E3,9.598566E3,1.49625E2,3.040217E3,0E0,0E0,0E0,0E0,0E0,0E0,0E0,0E0],"parents":[2147483647,0,0,1,1,2,2,3,3,4,4,5,5,6,6],"right_children":[2,4,6,8,10,12,14,-1,-1,-1,-1,-1,-1,-1,-1],"split_conditions":[1E0,4E0,1.1428572E0,4.38E2,1.7E1,2E0,4E0,2.4709616E0,4.5966215E0,2.875323E0,1.2161782E-1,-2.325603E-1,-6.975441E-1,-3.8310727E-1,5.6883015E-2],"split_indices":[0,11,19,29,9,0,6,0,0,0,0,0,0,0,0],"split_type":[0,0,0,0,0,0,0,0,0,0,0,0,0,0,0],"sum_hessian":[5.59E2,7E1,4.89E2,5E1,2E1,3.2E2,1.69E2,7E0,4.3E1,1.6E1,4E0,3E0,3.17E2,1.08E2,6.1E1],"tree_param":{"num_deleted":"0","num_feature":"30","num_nodes":"15","size_leaf_vector":"1"}},{"base_weights":[4.3065187E-1,7.115104E1,-9.738226E0,7.7983826E1,3.6769947E1,-1.3208089E1,-3.4466248E0,4.1213546E0,2.305761E0,2.954931E0,4.5942116E-1,-2.2383927E-1,-6.6406053E-1,-2.6199114E-1,4.3051776E-1],"categories":[],"categories_nodes":[],"categories_segments":[],"categories_sizes":[],"default_left":[0,0,0,0,0,0,0,0,0,0,0,0,0,0,0],"id":16,"left_children":[1,3,5,7,9,11,13,-1,-1,-1,-1,-1,-1,-1,-1],"loss_changes":[3.832791E5,1.2872094E4,1.0127723E4,3.986875E3,7.4631426E3,1.3207812E2,3.655749E3,0E0,0E0,0E0,0E0,0E0,0E0,0E0,0E0],"parents":[2147483647,0,0,1,1,2,2,3,3,4,4,5,5,6,6],"right_children":[2,4,6,8,10,12,14,-1,-1,-1,-1,-1,-1,-1,-1],"split_conditions":[1E0,1.5E1,1.1428572E0,9.21E2,2.4E1,2E0,7.22E1,4.1213546E0,2.305761E0,2.954931E0,4.5942116E-1,-2.2383927E-1,-6.6406053E-1,-2.6199114E-1,4.3051776E-1],"split_indices":[0,10,19,29,13,0,4,0,0,0,0,0,0,0,0],"split_type":[0,0,0,0,0,0,0,0,0,0,0,0,0,0,0],"sum_hessian":[5.31E2,6.6E1,4.65E2,5.4E1,1.2E1,2.99E2,1.66E2,4.6E1,8E0,6E0,6E0,3E0,2.96E2,1.45E2,2.1E1],"tree_param":{"num_deleted":"0","num_feature":"30","num_nodes":"15","size_leaf_vector":"1"}},{"base_weights":[2.894218E-1,6.930804E1,-9.487612E0,7.780635E1,4.1851173E1,-1.263704E1,-4.197058E0,4.1528163E0,2.2330644E0,2.5658815E0,-2.0554152E-1,-4.7583666E-1,-6.4325315E-1,7.042767E-1,-2.4583581E-1],"categories":[],"categories_nodes":[],"categories_segments":[],"categories_sizes":[],"default_left":[0,0,0,0,0,0,0,0,0,0,0,0,0,0,0],"id":17,"left_children":[1,3,5,7,9,11,13,-1,-1,-1,-1,-1,-1,-1,-1],"loss_changes":[3.6437328E5,1.2377281E4,7.8281914E3,4.9911562E3,8.042707E3,8.8171875E1,2.4112366E3,0E0,0E0,0E0,0E0,0E0,0E0,0E0,0E0],"parents":[2147483647,0,0,1,1,2,2,3,3,4,4,5,5,6,6],"right_children":[2,4,6,8,10,12,14,-1,-1,-1,-1,-1,-1,-1,-1],"split_conditions":[1E0,4E0,9.285714E-1,2.46E2,1.8E1,3E0,1.9612651E0,4.1528163E0,2.2330644E0,2.5658815E0,-2.0554152E-1,-4.7583666E-1,-6.4325315E-1,7.042767E-1,-2.4583581E-1],"split_indices":[0,11,20,2,9,0,25,0,0,0,0,0,0,0,0],"split_type":[0,0,0,0,0,0,0,0,0,0,0,0,0,0,0],"sum_hessian":[5.38E2,6.6E1,4.72E2,4.9E1,1.7E1,2.95E2,1.77E2,4.1E1,8E0,1.4E1,3E0,2.3E1,2.72E2,6E0,1.71E2],"tree_param":{"num_deleted":"0","num_feature":"30","num_nodes":"15","size_leaf_vector":"1"}},{"base_weights":[-6.379255E-1,6.3822426E1,-9.432642E0,7.071623E1,2.9746918E1,-1.1931751E1,-4.512622E0,3.80727E0,2.1038616E0,2.6129582E0,4.5721838E-1,-6.002118E-1,-1.5569301E-1,-2.6579294E-1,6.05809E-1],"categories":[],"categories_nodes":[],"categories_segments":[],"categories_sizes":[],"default_left":[0,0,0,0,0,0,0,0,0,0,0,0,0,0,0],"id":18,"left_children":[1,3,5,7,9,11,13,-1,-1,-1,-1,-1,-1,-1,-1],"loss_changes":[3.163712E5,1.3635375E4,5.983332E3,5.34775E3,5.5516484E3,1.7034375E2,2.2950027E3,0E0,0E0,0E0,0E0,0E0,0E0,0E0,0E0],"parents":[2147483647,0,0,1,1,2,2,3,3,4,4,5,5,6,6],"right_children":[2,4,6,8,10,12,14,-1,-1,-1,-1,-1,-1,-1,-1],"split_conditions":[1E0,1.5E1,1.2149858E0,3.257143E1,2.2E1,2E0,7.428571E0,3.80727E0,2.1038616E0,2.6129582E0,4.5721838E-1,-6.002118E-1,-1.5569301E-1,-2.6579294E-1,6.05809E-1],"split_indices":[0,10,23,21,13,18,19,0,0,0,0,0,0,0,0],"split_type":[0,0,0,0,0,0,0,0,0,0,0,0,0,0,0],"sum_hessian":[5.56E2,6.6E1,4.9E2,5.4E1,1.2E1,3.24E2,1.66E2,4.4E1,1E1,5E0,7E0,3.21E2,3E0,1.59E2,7E0],"tree_param":{"num_deleted":"0","num_feature":"30","num_nodes":"15","size_leaf_vector":"1"}},{"base_weights":[1.0700998E-1,-8.497144E0,6.0714108E1,-1.0313863E1,2.9483804E-1,6.9471985E1,3.6221607E1,-5.7872564E-1,-3.1478104E-1,-2.802462E-1,3.237601E-1,1.8057683E0,3.7085767E0,2.1118107E0,-5.969953E-1],"categories":[],"categories_nodes":[],"categories_segments":[],"categories_sizes":[],"default_left":[0,0,0,0,0,0,0,0,0,0,0,0,0,0,0],"id":19,"left_children":[1,3,5,7,9,11,13,-1,-1,-1,-1,-1,-1,-1,-1],"loss_changes":[2.8524003E5,7.6538984E3,1.2069766E4,1.9381719E3,3.0626948E3,5.0025625E3,6.297746E3,0E0,0E0,0E0,0E0,0E0,0E0,0E0,0E0],"parents":[2147483647,0,0,1,1,2,2,3,3,4,4,5,5,6,6],"right_children":[2,4,6,8,10,12,14,-1,-1,-1,-1,-1,-1,-1,-1],"split_conditions":[1.3333333E1,3E0,4E0,1.5875E2,5.828E1,4.16E2,1.9E1,-5.7872564E-1,-3.1478104E-1,-2.802462E-1,3.237601E-1,1.8057683E0,3.7085767E0,2.1118107E0,-5.969953E-1],"split_indices":[18,13,11,2,4,29,9,0,0,0,0,0,0,0,0],"split_type":[0,0,0,0,0,0,0,0,0,0,0,0,0,0,0],"sum_hessian":[5.45E2,4.78E2,6.7E1,3.96E2,8.2E1,4.8E1,1.9E1,3E2,9.6E1,4.2E1,4E1,7E0,4.1E1,1.7E1,2E0],"tree_param":{"num_deleted":"0","num_feature":"30","num_nodes":"15","size_leaf_vector":"1"}},{"base_weights":[4.8075053E-1,5.8309E1,-8.105053E0,6.595641E1,3.5127895E1,-9.582639E0,1.0969461E0,3.6048887E0,1.9482657E0,2.1196296E0,-2.2645216E-1,-5.421645E-1,-2.732666E-1,-4.490933E-1,2.3163326E-1],"categories":[],"categories_nodes":[],"categories_segments":[],"categories_sizes":[],"default_left":[0,0,0,0,0,0,0,0,0,0,0,0,0,0,0],"id":20,"left_children":[1,3,5,7,9,11,13,-1,-1,-1,-1,-1,-1,-1,-1],"loss_changes":[2.765277E5,1.0446922E4,6.6049297E3,5.976078E3,5.95391E3,2.1103633E3,2.464848E3,0E0,0E0,0E0,0E0,0E0,0E0,0E0,0E0],"parents":[2147483647,0,0,1,1,2,2,3,3,4,4,5,5,6,6],"right_children":[2,4,6,8,10,12,14,-1,-1,-1,-1,-1,-1,-1,-1],"split_conditions":[1E0,4E0,2.6654072E0,3.257143E1,1.8E1,1.2909944E0,1.5875E2,3.6048887E0,1.9482657E0,2.1196296E0,-2.2645216E-1,-5.421645E-1,-2.732666E-1,-4.490933E-1,2.3163326E-1],"split_indices":[0,11,24,21,9,23,2,0,0,0,0,0,0,0,0],"split_type":[0,0,0,0,0,0,0,0,0,0,0,0,0,0,0],"sum_hessian":[5.55E2,7.1E1,4.84E2,5.2E1,1.9E1,4.17E2,6.7E1,4.1E1,1.1E1,1.6E1,3E0,3.18E2,9.9E1,1.7E1,5E1],"tree_param":{"num_deleted":"0","num_feature":"30","num_nodes":"15","size_leaf_vector":"1"}},{"base_weights":[9.91007E-3,5.5689365E1,-7.7328563E0,5.9749577E1,1.7769081E1,-9.345727E0,1.5474083E-1,1.3043951E0,3.1144614E0,1.469379E0,-5.6954706E-1,-5.177117E-1,-2.6782584E-1,-3.0214733E-1,2.3524928E-1],"categories":[],"categories_nodes":[],"categories_segments":[],"categories_sizes":[],"default_left":[0,0,0,0,0,0,0,0,0,0,0,0,0,0,0],"id":21,"left_children":[1,3,5,7,9,11,13,-1,-1,-1,-1,-1,-1,-1,-1],"loss_changes":[2.4012948E5,9.407875E3,6.222342E3,3.5898438E3,3.0451174E3,1.5779375E3,2.3973154E3,0E0,0E0,0E0,0E0,0E0,0E0,0E0,0E0],"parents":[2147483647,0,0,1,1,2,2,3,3,4,4,5,5,6,6],"right_children":[2,4,6,8,10,12,14,-1,-1,-1,-1,-1,-1,-1,-1],"split_conditions":[1E0,1.6E1,3E0,3.98E2,1.9E1,1.1547005E0,2.511512E0,1.3043951E0,3.1144614E0,1.469379E0,-5.6954706E-1,-5.177117E-1,-2.6782584E-1,-3.0214733E-1,2.3524928E-1],"split_indices":[0,10,6,29,9,22,24,0,0,0,0,0,0,0,0],"split_type":[0,0,0,0,0,0,0,0,0,0,0,0,0,0,0],"sum_hessian":[5.55E2,6.7E1,4.88E2,6E1,7E0,4.05E2,8.3E1,5E0,5.5E1,5E0,2E0,3.22E2,8.3E1,3.5E1,4.8E1],"tree_param":{"num_deleted":"0","num_feature":"30","num_nodes":"15","size_leaf_vector":"1"}},{"base_weights":[9.581852E-2,5.2241722E1,-7.13787E0,5.9946705E1,3.113768E1,-9.660294E0,-1.9853503E0,3.305716E0,1.6595356E0,1.8216314E0,-5.5056214E-1,-4.921484E-1,9.187154E-4,-2.525234E-1,3.5170746E-1],"categories":[],"categories_nodes":[],"categories_segments":[],"categories_sizes":[],"default_left":[0,0,0,0,0,0,0,0,0,0,0,0,0,0,0],"id":22,"left_children":[1,3,5,7,9,11,13,-1,-1,-1,-1,-1,-1,-1,-1],"loss_changes":[2.0745964E5,9.028047E3,6.258293E3,5.7265938E3,4.8646953E3,5.730293E2,4.458858E3,0E0,0E0,0E0,0E0,0E0,0E0,0E0,0E0],"parents":[2147483647,0,0,1,1,2,2,3,3,4,4,5,5,6,6],"right_children":[2,4,6,8,10,12,14,-1,-1,-1,-1,-1,-1,-1,-1],"split_conditions":[1E0,4E0,1.672E2,3.257143E1,1.9E1,4.857143E0,2.7305758E0,3.305716E0,1.6595356E0,1.8216314E0,-5.5056214E-1,-4.921484E-1,9.187154E-4,-2.525234E-1,3.5170746E-1],"split_indices":[0,11,2,21,9,20,24,0,0,0,0,0,0,0,0],"split_type":[0,0,0,0,0,0,0,0,0,0,0,0,0,0,0],"sum_hessian":[5.48E2,6.6E1,4.82E2,4.7E1,1.9E1,3.23E2,1.59E2,3.7E1,1E1,1.7E1,2E0,3.17E2,6E0,1.19E2,4E1],"tree_param":{"num_deleted":"0","num_feature":"30","num_nodes":"15","size_leaf_vector":"1"}},{"base_weights":[3.905658E-1,-6.786736E0,5.360701E1,-9.088084E0,-1.4803429E0,5.8942894E1,3.1891197E1,-2.8352663E-2,-4.6470928E-1,1.0570574E0,-1.2964484E-1,3.2655609E0,1.6401621E0,-2.3109512E-1,2.0702317E0],"categories":[],"categories_nodes":[],"categories_segments":[],"categories_sizes":[],"default_left":[0,0,0,0,0,0,0,0,0,0,0,0,0,0,0],"id":23,"left_children":[1,3,5,7,9,11,13,-1,-1,-1,-1,-1,-1,-1,-1],"loss_changes":[2.0890878E5,5.872664E3,5.652E3,5.8481055E2,3.754458E3,6.347328E3,5.401841E3,0E0,0E0,0E0,0E0,0E0,0E0,0E0,0E0],"parents":[2147483647,0,0,1,1,2,2,3,3,4,4,5,5,6,6],"right_children":[2,4,6,8,10,12,14,-1,-1,-1,-1,-1,-1,-1,-1],"split_conditions":[1.7E1,6.3E1,4E0,2E0,1.9612651E0,3.2285713E1,2.5E1,-2.8352663E-2,-4.6470928E-1,1.0570574E0,-1.2964484E-1,3.2655609E0,1.6401621E0,-2.3109512E-1,2.0702317E0],"split_indices":[6,29,11,0,25,21,20,0,0,0,0,0,0,0,0],"split_type":[0,0,0,0,0,0,0,0,0,0,0,0,0,0,0],"sum_hessian":[5.45E2,4.81E2,6.4E1,3.35E2,1.46E2,5E1,1.4E1,8E0,3.27E2,6E0,1.4E2,3.9E1,1.1E1,3E0,1.1E1],"tree_param":{"num_deleted":"0","num_feature":"30","num_nodes":"15","size_leaf_vector":"1"}},{"base_weights":[2.449046E-1,-6.640467E0,5.0160248E1,-7.8436728E0,2.1733937E0,5.1315407E1,-6.808802E-1,-4.4263074E-1,-2.3387687E-1,-4.2680642E-1,3.1308842E-1,2.9587204E0,2.043521E0],"categories":[],"categories_nodes":[],"categories_segments":[],"categories_sizes":[],"default_left":[0,0,0,0,0,0,0,0,0,0,0,0,0],"id":24,"left_children":[1,3,5,7,9,11,-1,-1,-1,-1,-1,-1,-1],"loss_changes":[1.9279708E5,5.245258E3,5.7085938E3,1.3449805E3,2.6805232E3,3.0813438E3,0E0,0E0,0E0,0E0,0E0,0E0,0E0],"parents":[2147483647,0,0,1,1,2,2,3,3,4,4,5,5],"right_children":[2,4,6,8,10,12,-1,-1,-1,-1,-1,-1,-1],"split_conditions":[1.3333333E1,2.7305758E0,1.7E1,1.2909944E0,1.5875E2,1.2E1,-6.808802E-1,-4.4263074E-1,-2.3387687E-1,-4.2680642E-1,3.1308842E-1,2.9587204E0,2.043521E0],"split_indices":[18,24,10,23,2,10,0,0,0,0,0,0,0],"split_type":[0,0,0,0,0,0,0,0,0,0,0,0,0],"sum_hessian":[5.59E2,4.92E2,6.7E1,4.33E2,5.9E1,6.6E1,1E0,3.27E2,1.06E2,1.6E1,4.3E1,3.5E1,3.1E1],"tree_param":{"num_deleted":"0","num_feature":"30","num_nodes":"13","size_leaf_vector":"1"}},{"base_weights":[4.0504882E-1,-5.9373565E0,4.830837E1,-6.9881163E0,6.0846643E0,6.054373E1,3.5371902E1,-4.2432213E-1,-1.8622147E-1,1.9452156E-1,1.2430077E0,3.2093065E0,1.4018772E0,4.3727383E-2,2.0644784E0],"categories":[],"categories_nodes":[],"categories_segments":[],"categories_sizes":[],"default_left":[0,0,0,0,0,0,0,0,0,0,0,0,0,0,0],"id":25,"left_children":[1,3,5,7,9,11,13,-1,-1,-1,-1,-1,-1,-1,-1],"loss_changes":[1.6890819E5,6.244959E3,8.146797E3,2.178705E3,1.5511956E3,1.9891953E3,6.9047734E3,0E0,0E0,0E0,0E0,0E0,0E0,0E0,0E0],"parents":[2147483647,0,0,1,1,2,2,3,3,4,4,5,5,6,6],"right_children":[2,4,6,8,10,12,14,-1,-1,-1,-1,-1,-1,-1,-1],"split_conditions":[7.5256805E0,6E0,1.2E1,1.5875E2,2.8E1,2.46E2,2.6142857E1,-4.2432213E-1,-1.8622147E-1,1.9452156E-1,1.2430077E0,3.2093065E0,1.4018772E0,4.3727383E-2,2.0644784E0],"split_indices":[25,6,10,2,9,2,20,0,0,0,0,0,0,0,0],"split_type":[0,0,0,0,0,0,0,0,0,0,0,0,0,0,0],"sum_hessian":[5.54E2,4.9E2,6.4E1,4.51E2,3.9E1,3.1E1,3.3E1,3.08E2,1.43E2,3.6E1,3E0,2.7E1,4E0,5E0,2.8E1],"tree_param":{"num_deleted":"0","num_feature":"30","num_nodes":"15","size_leaf_vector":"1"}},{"base_weights":[4.446257E-2,4.4736313E1,-6.1041994E0,5.195247E1,1.8487793E1,-7.8933473E0,-1.8713726E0,7.910128E-1,2.731695E0,1.7704277E0,3.7887892E-1,-2.3454188E-1,-4.1158205E-1,8.3959E-1,-1.4660244E-1],"categories":[],"categories_nodes":[],"categories_segments":[],"categories_sizes":[],"default_left":[0,0,0,0,0,0,0,0,0,0,0,0,0,0,0],"id":26,"left_children":[1,3,5,7,9,11,13,-1,-1,-1,-1,-1,-1,-1,-1],"loss_changes":[1.5223477E5,1.1730219E4,3.6733535E3,4.17375E3,2.685435E3,3.3190625E2,2.9393894E3,0E0,0E0,0E0,0E0,0E0,0E0,0E0,0E0],"parents":[2147483647,0,0,1,1,2,2,3,3,4,4,5,5,6,6],"right_children":[2,4,6,8,10,12,14,-1,-1,-1,-1,-1,-1,-1,-1],"split_conditions":[1E0,4E0,6.3E1,3.98E2,2.1E1,3E0,1.9612651E0,7.910128E-1,2.731695E0,1.7704277E0,3.7887892E-1,-2.3454188E-1,-4.1158205E-1,8.3959E-1,-1.4660244E-1],"split_indices":[0,11,29,29,13,0,25,0,0,0,0,0,0,0,0],"split_type":[0,0,0,0,0,0,0,0,0,0,0,0,0,0,0],"sum_hessian":[5.52E2,6.6E1,4.86E2,5.1E1,1.5E1,3.41E2,1.45E2,4E0,4.7E1,5E0,1E1,3.4E1,3.07E2,7E0,1.38E2],"tree_param":{"num_deleted":"0","num_feature":"30","num_nodes":"15","size_leaf_vector":"1"}},{"base_weights":[-4.9722176E-3,-5.8877397E0,4.160076E1,-7.7363486E0,-2.2881002E0,3.7108868E1,3.2196026E0,-3.941793E-1,1.5876205E-1,-2.2373496E-1,2.2704148E-1,2.349139E0,1.3178204E0],"categories":[],"categories_nodes":[],"categories_segments":[],"categories_sizes":[],"default_left":[0,0,0,0,0,0,0,0,0,0,0,0,0],"id":27,"left_children":[1,3,5,7,9,11,-1,-1,-1,-1,-1,-1,-1],"loss_changes":[1.3632975E5,3.2296094E3,4.6744297E3,5.4235547E2,2.5139844E3,5.1318203E3,0E0,0E0,0E0,0E0,0E0,0E0,0E0],"parents":[2147483647,0,0,1,1,2,2,3,3,4,4,5,5],"right_children":[2,4,6,8,10,12,-1,-1,-1,-1,-1,-1,-1],"split_conditions":[1.0666667E1,1.5875E2,2.6E1,4.857143E0,2.7305758E0,1.2E1,3.2196026E0,-3.941793E-1,1.5876205E-1,-2.2373496E-1,2.2704148E-1,2.349139E0,1.3178204E0],"split_indices":[18,2,9,20,24,10,0,0,0,0,0,0,0],"split_type":[0,0,0,0,0,0,0,0,0,0,0,0,0],"sum_hessian":[5.55E2,4.87E2,6.8E1,3.21E2,1.66E2,5.9E1,9E0,3.17E2,4E0,1.26E2,4E1,2.9E1,3E1],"tree_param":{"num_deleted":"0","num_feature":"30","num_nodes":"13","size_leaf_vector":"1"}},{"base_weights":[1.703632E-1,-5.114163E0,4.1664093E1,-5.880666E0,9.662482E0,5.324465E1,2.950532E1,-3.0754784E-1,6.167638E-1,3.250332E-1,1.1923205E0,1.7323555E0,3.0405533E0,8.884946E-1,2.5146937E0],"categories":[],"categories_nodes":[],"categories_segments":[],"categories_sizes":[],"default_left":[0,0,0,0,0,0,0,0,0,0,0,0,0,0,0],"id":28,"left_children":[1,3,5,7,9,11,13,-1,-1,-1,-1,-1,-1,-1,-1],"loss_changes":[1.1840215E5,5.4821387E3,7.018125E3,2.321038E3,9.2131055E2,2.1145703E3,6.91309E3,0E0,0E0,0E0,0E0,0E0,0E0,0E0,0E0],"parents":[2147483647,0,0,1,1,2,2,3,3,4,4,5,5,6,6],"right_children":[2,4,6,8,10,12,14,-1,-1,-1,-1,-1,-1,-1,-1],"split_conditions":[3.98E2,8E0,1.2E1,1.02E2,2.5E1,3E1,5.661905E1,-3.0754784E-1,6.167638E-1,3.250332E-1,1.1923205E0,1.7323555E0,3.0405533E0,8.884946E-1,2.5146937E0],"split_indices":[29,6,10,28,9,19,4,0,0,0,0,0,0,0,0],"split_type":[0,0,0,0,0,0,0,0,0,0,0,0,0,0,0],"sum_hessian":[5.38E2,4.78E2,6E1,4.55E2,2.3E1,2.9E1,3.1E1,4.49E2,6E0,2E1,3E0,1E1,1.9E1,2.1E1,1E1],"tree_param":{"num_deleted":"0","num_feature":"30","num_nodes":"15","size_leaf_vector":"1"}},{"base_weights":[2.1964455E-1,-5.0304165E0,3.9874416E1,-5.500866E0,1.26908045E1,5.0905685E1,2.8319271E1,-3.46377E-1,-1.1316617E-1,-4.9205337E-2,7.633308E-1,1.3140224E0,2.7246282E0,8.2899994E-1,2.4229803E0],"categories":[],"categories_nodes":[],"categories_segments":[],"categories_sizes":[],"default_left":[0,0,0,0,0,0,0,0,0,0,0,0,0,0,0],"id":29,"left_children":[1,3,5,7,9,11,13,-1,-1,-1,-1,-1,-1,-1,-1],"loss_changes":[1.15746016E5,4.16325E3,6.8438125E3,2.1967812E3,4.7293628E2,1.3943906E3,7.23526E3,0E0,0E0,0E0,0E0,0E0,0E0,0E0,0E0],"parents":[2147483647,0,0,1,1,2,2,3,3,4,4,5,5,6,6],"right_children":[2,4,6,8,10,12,14,-1,-1,-1,-1,-1,-1,-1,-1],"split_conditions":[3.98E2,1.1E1,1.2E1,6.2E1,1E0,8E0,5.661905E1,-3.46377E-1,-1.1316617E-1,-4.9205337E-2,7.633308E-1,1.3140224E0,2.7246282E0,8.2899994E-1,2.4229803E0],"split_indices":[29,6,10,29,1,10,4,0,0,0,0,0,0,0,0],"split_type":[0,0,0,0,0,0,0,0,0,0,0,0,0,0,0],"sum_hessian":[5.54E2,4.9E2,6.4E1,4.78E2,1.2E1,3.1E1,3.3E1,3.31E2,1.47E2,2E0,1E1,5E0,2.6E1,2.2E1,1.1E1],"tree_param":{"num_deleted":"0","num_feature":"30","num_nodes":"15","size_leaf_vector":"1"}},{"base_weights":[2.7085176E-1,-4.6413817E0,3.972281E1,-5.205388E0,1.3866648E1,4.4801037E1,2.5872023E1,-2.817965E-1,2.8140897E-1,8.5004276E-1,-7.5030625E-1,2.5020463E0,1.332896E0,2.4407468E0,8.249793E-1],"categories":[],"categories_nodes":[],"categories_segments":[],"categories_sizes":[],"default_left":[0,0,0,0,0,0,0,0,0,0,0,0,0,0,0],"id":30,"left_children":[1,3,5,7,9,11,13,-1,-1,-1,-1,-1,-1,-1,-1],"loss_changes":[1.08517016E5,5.270626E3,3.2018203E3,2.2892412E3,1.6125156E3,2.8490078E3,3.280164E3,0E0,0E0,0E0,0E0,0E0,0E0,0E0,0E0],"parents":[2147483647,0,0,1,1,2,2,3,3,4,4,5,5,6,6],"right_children":[2,4,6,8,10,12,14,-1,-1,-1,-1,-1,-1,-1,-1],"split_conditions":[6.999215E0,7.357143E0,4E0,8E0,1.5E1,3.207143E1,9.49213E0,-2.817965E-1,2.8140897E-1,8.5004276E-1,-7.5030625E-1,2.5020463E0,1.332896E0,2.4407468E0,8.249793E-1],"split_indices":[24,20,11,13,9,21,25,0,0,0,0,0,0,0,0],"split_type":[0,0,0,0,0,0,0,0,0,0,0,0,0,0,0],"sum_hessian":[5.58E2,4.97E2,6.1E1,4.83E2,1.4E1,4.3E1,1.8E1,4.65E2,1.8E1,1.3E1,1E0,3.2E1,1.1E1,4E0,1.4E1],"tree_param":{"num_deleted":"0","num_feature":"30","num_nodes":"15","size_leaf_vector":"1"}},{"base_weights":[2.8168344E-1,-4.7671065E0,3.6196194E1,-6.5067897E0,-1.4613042E0,3.1293474E1,5.3571823E1,-3.090914E-1,-4.9382433E-1,-1.8114069E-1,2.2925492E-1,1.9422783E0,1.0731767E0,3.012594E0,1.0904362E0],"categories":[],"categories_nodes":[],"categories_segments":[],"categories_sizes":[],"default_left":[0,0,0,0,0,0,0,0,0,0,0,0,0,0,0],"id":31,"left_children":[1,3,5,7,9,11,13,-1,-1,-1,-1,-1,-1,-1,-1],"loss_changes":[1.0298372E5,2.8545137E3,4.2866953E3,2.9592188E2,2.2776094E3,3.3977266E3,1.6564922E3,0E0,0E0,0E0,0E0,0E0,0E0,0E0,0E0],"parents":[2147483647,0,0,1,1,2,2,3,3,4,4,5,5,6,6],"right_children":[2,4,6,8,10,12,14,-1,-1,-1,-1,-1,-1,-1,-1],"split_conditions":[1.5E1,1.5875E2,2.4E1,3.0357144E0,2.7305758E0,1.2E1,3.0928572E1,-3.090914E-1,-4.9382433E-1,-1.8114069E-1,2.2925492E-1,1.9422783E0,1.0731767E0,3.012594E0,1.0904362E0],"split_indices":[16,2,9,21,24,10,20,0,0,0,0,0,0,0,0],"split_type":[0,0,0,0,0,0,0,0,0,0,0,0,0,0,0],"sum_hessian":[5.66E2,4.97E2,6.9E1,3.25E2,1.72E2,5.6E1,1.3E1,2.99E2,2.6E1,1.27E2,4.5E1,3E1,2.6E1,1E1,3E0],"tree_param":{"num_deleted":"0","num_feature":"30","num_nodes":"15","size_leaf_vector":"1"}},{"base_weights":[3.5131478E-1,-4.276773E0,3.5056484E1,-5.3105707E0,2.1750023E0,2.9447025E1,5.2986908E1,-2.8564355E-1,4.5635458E-2,-2.8417262E-1,2.7020228E-1,1.5321335E0,-7.58378E-1,2.7869956E0,4.2994615E-1],"categories":[],"categories_nodes":[],"categories_segments":[],"categories_sizes":[],"default_left":[0,0,0,0,0,0,0,0,0,0,0,0,0,0,0],"id":32,"left_children":[1,3,5,7,9,11,13,-1,-1,-1,-1,-1,-1,-1,-1],"loss_changes":[8.736582E4,3.2130684E3,4.8768125E3,1.0417158E3,1.730858E3,3.1852734E3,1.2315E3,0E0,0E0,0E0,0E0,0E0,0E0,0E0,0E0],"parents":[2147483647,0,0,1,1,2,2,3,3,4,4,5,5,6,6],"right_children":[2,4,6,8,10,12,14,-1,-1,-1,-1,-1,-1,-1,-1],"split_conditions":[3.98E2,2.6654072E0,2.3E1,2.6457512E0,6.8E1,1.7E1,3.1071428E1,-2.8564355E-1,4.5635458E-2,-2.8417262E-1,2.7020228E-1,1.5321335E0,-7.58378E-1,2.7869956E0,4.2994615E-1],"split_indices":[29,24,9,22,29,10,20,0,0,0,0,0,0,0,0],"split_type":[0,0,0,0,0,0,0,0,0,0,0,0,0,0,0],"sum_hessian":[5.42E2,4.79E2,6.3E1,4.13E2,6.6E1,5E1,1.3E1,3.88E2,2.5E1,1.9E1,4.7E1,4.9E1,1E0,1.2E1,1E0],"tree_param":{"num_deleted":"0","num_feature":"30","num_nodes":"15","size_leaf_vector":"1"}},{"base_weights":[4.061731E-1,-3.9861655E0,3.337625E1,-4.401552E0,5.765006E-1,3.817119E1,1.8735512E1,-2.7873564E-1,-4.567815E-2,2.1756828E0,1.1044253E0,2.1641424E0,5.4702604E-1],"categories":[],"categories_nodes":[],"categories_segments":[],"categories_sizes":[],"default_left":[0,0,0,0,0,0,0,0,0,0,0,0,0],"id":33,"left_children":[1,3,5,7,-1,9,11,-1,-1,-1,-1,-1,-1],"loss_changes":[8.007133E4,3.1960151E3,3.8479453E3,1.9426865E3,0E0,3.1630625E3,2.9706953E3,0E0,0E0,0E0,0E0,0E0,0E0],"parents":[2147483647,0,0,1,1,2,2,3,3,5,5,6,6],"right_children":[2,4,6,8,-1,10,12,-1,-1,-1,-1,-1,-1],"split_conditions":[3.98E2,7.357143E0,4E0,1.5275252E0,5.765006E-1,3.207143E1,9.49213E0,-2.7873564E-1,-4.567815E-2,2.1756828E0,1.1044253E0,2.1641424E0,5.4702604E-1],"split_indices":[29,20,11,22,0,21,25,0,0,0,0,0,0],"split_type":[0,0,0,0,0,0,0,0,0,0,0,0,0],"sum_hessian":[5.51E2,4.87E2,6.4E1,4.75E2,1.2E1,4.7E1,1.7E1,3.55E2,1.2E2,3.4E1,1.3E1,3E0,1.4E1],"tree_param":{"num_deleted":"0","num_feature":"30","num_nodes":"13","size_leaf_vector":"1"}},{"base_weights":[2.7443755E-1,-3.9113119E0,2.8964077E1,-5.581225E0,-8.18051E-1,3.420902E1,1.6204018E1,-2.6061326E-1,-4.5357475E-1,-1.6726916E-1,2.0589738E-1,8.0173254E-1,1.8721513E0,1.5238116E0,1.9894655E-1],"categories":[],"categories_nodes":[],"categories_segments":[],"categories_sizes":[],"default_left":[0,0,0,0,0,0,0,0,0,0,0,0,0,0,0],"id":34,"left_children":[1,3,5,7,9,11,13,-1,-1,-1,-1,-1,-1,-1,-1],"loss_changes":[6.5080703E4,2.4387046E3,4.0635508E3,3.480625E2,2.0970857E3,2.2208672E3,3.7172754E3,0E0,0E0,0E0,0E0,0E0,0E0,0E0,0E0],"parents":[2147483647,0,0,1,1,2,2,3,3,4,4,5,5,6,6],"right_children":[2,4,6,8,10,12,14,-1,-1,-1,-1,-1,-1,-1,-1],"split_conditions":[1.0666667E1,1.5875E2,4E0,3.0357144E0,2.511512E0,7.8038454E0,2.1666666E1,-2.6061326E-1,-4.5357475E-1,-1.6726916E-1,2.0589738E-1,8.0173254E-1,1.8721513E0,1.5238116E0,1.9894655E-1],"split_indices":[18,2,11,21,24,25,18,0,0,0,0,0,0,0,0],"split_type":[0,0,0,0,0,0,0,0,0,0,0,0,0,0,0],"sum_hessian":[5.4E2,4.72E2,6.8E1,3.06E2,1.66E2,4.7E1,2.1E1,2.79E2,2.7E1,1.1E2,5.6E1,8E0,3.9E1,9E0,1.2E1],"tree_param":{"num_deleted":"0","num_feature":"30","num_nodes":"15","size_leaf_vector":"1"}},{"base_weights":[1.1962682E-1,-3.793675E0,3.0340517E1,-4.135524E0,5.254887E-1,3.8446888E1,2.0779358E1,-2.6311317E-1,-7.184898E-2,1.276702E0,2.2612324E0,1.2067963E0,-4.3752995E-1],"categories":[],"categories_nodes":[],"categories_segments":[],"categories_sizes":[],"default_left":[0,0,0,0,0,0,0,0,0,0,0,0,0],"id":35,"left_children":[1,3,5,7,-1,9,11,-1,-1,-1,-1,-1,-1],"loss_changes":[6.705222E4,2.4980493E3,4.239008E3,1.4853516E3,0E0,1.820918E3,3.3830215E3,0E0,0E0,0E0,0E0,0E0,0E0],"parents":[2147483647,0,0,1,1,2,2,3,3,5,5,6,6],"right_children":[2,4,6,8,-1,10,12,-1,-1,-1,-1,-1,-1],"split_conditions":[3.98E2,7.357143E0,1.2E1,6.2E1,5.254887E-1,3E1,6E0,-2.6311317E-1,-7.184898E-2,1.276702E0,2.2612324E0,1.2067963E0,-4.3752995E-1],"split_indices":[29,20,10,29,0,19,8,0,0,0,0,0,0],"split_type":[0,0,0,0,0,0,0,0,0,0,0,0,0],"sum_hessian":[5.65E2,5.01E2,6.4E1,4.9E2,1.1E1,3.3E1,3.1E1,3.45E2,1.45E2,1.3E1,2E1,2.8E1,3E0],"tree_param":{"num_deleted":"0","num_feature":"30","num_nodes":"13","size_leaf_vector":"1"}},{"base_weights":[6.840454E-2,-3.6517096E0,2.6381735E1,-4.9626265E0,-6.686151E-1,2.265399E1,2.286863E0,-2.3917663E-1,-5.831386E-1,8.6269903E-1,-8.403791E-2,1.2569381E0,3.9823696E-1],"categories":[],"categories_nodes":[],"categories_segments":[],"categories_sizes":[],"default_left":[0,0,0,0,0,0,0,0,0,0,0,0,0],"id":36,"left_children":[1,3,5,7,9,11,-1,-1,-1,-1,-1,-1,-1],"loss_changes":[5.373929E4,1.8776758E3,3.8702383E3,3.449961E2,2.7137537E3,1.9532422E3,0E0,0E0,0E0,0E0,0E0,0E0,0E0],"parents":[2147483647,0,0,1,1,2,2,3,3,4,4,5,5],"right_children":[2,4,6,8,10,12,-1,-1,-1,-1,-1,-1,-1],"split_conditions":[1.0333333E1,6.3E1,2.6E1,3.642857E0,1.9612651E0,3.6E1,2.286863E0,-2.3917663E-1,-5.831386E-1,8.6269903E-1,-8.403791E-2,1.2569381E0,3.9823696E-1],"split_indices":[18,29,9,20,25,17,0,0,0,0,0,0,0],"split_type":[0,0,0,0,0,0,0,0,0,0,0,0,0],"sum_hessian":[5.47E2,4.8E2,6.7E1,3.33E2,1.47E2,5.8E1,9E0,3.26E2,7E0,7E0,1.4E2,4.9E1,9E0],"tree_param":{"num_deleted":"0","num_feature":"30","num_nodes":"13","size_leaf_vector":"1"}},{"base_weights":[2.618166E-1,-3.282887E0,2.7119932E1,-4.237368E0,2.4363577E0,3.0062428E1,1.32638035E1,-2.3903334E-1,-8.2404595E-3,-2.6968026E-1,2.6252264E-1,1.6642417E0,4.0893012E-1,1.3298075E-1,1.0986581E0],"categories":[],"categories_nodes":[],"categories_segments":[],"categories_sizes":[],"default_left":[0,0,0,0,0,0,0,0,0,0,0,0,0,0,0],"id":37,"left_children":[1,3,5,7,9,11,13,-1,-1,-1,-1,-1,-1,-1,-1],"loss_changes":[5.2260855E4,2.6578965E3,2.2106406E3,9.1966016E2,1.570717E3,3.3947422E3,1.1421836E3,0E0,0E0,0E0,0E0,0E0,0E0,0E0,0E0],"parents":[2147483647,0,0,1,1,2,2,3,3,4,4,5,5,6,6],"right_children":[2,4,6,8,10,12,14,-1,-1,-1,-1,-1,-1,-1,-1],"split_conditions":[6.999215E0,2.7305758E0,3.6E1,6.06E2,1.5875E2,1.10151415E1,6.9624844E0,-2.3903334E-1,-8.2404595E-3,-2.6968026E-1,2.6252264E-1,1.6642417E0,4.0893012E-1,1.3298075E-1,1.0986581E0],"split_indices":[24,24,17,5,2,22,23,0,0,0,0,0,0,0,0],"split_type":[0,0,0,0,0,0,0,0,0,0,0,0,0,0,0],"sum_hessian":[5.47E2,4.84E2,6.3E1,4.15E2,6.9E1,5.1E1,1.2E1,3.66E2,4.9E1,1.8E1,5.1E1,4.4E1,7E0,6E0,6E0],"tree_param":{"num_deleted":"0","num_feature":"30","num_nodes":"15","size_leaf_vector":"1"}},{"base_weights":[1.3299395E-1,-3.4236453E0,2.6340643E1,-3.7452033E0,9.402417E0,2.9269117E1,1.8166299E0,-1.9547154E-1,3.81442E-1,4.8769593E-1,1.383976E-1,1.5999742E0,5.424146E-1,5.267145E-1,-8.112116E-1],"categories":[],"categories_nodes":[],"categories_segments":[],"categories_sizes":[],"default_left":[0,0,0,0,0,0,0,0,0,0,0,0,0,0,0],"id":38,"left_children":[1,3,5,7,9,11,13,-1,-1,-1,-1,-1,-1,-1,-1],"loss_changes":[5.0703832E4,2.0107646E3,4.614996E3,9.040156E2,9.859619E-1,2.570004E3,1.4291034E3,0E0,0E0,0E0,0E0,0E0,0E0,0E0,0E0],"parents":[2147483647,0,0,1,1,2,2,3,3,4,4,5,5,6,6],"right_children":[2,4,6,8,10,12,14,-1,-1,-1,-1,-1,-1,-1,-1],"split_conditions":[3.98E2,7.357143E0,1.6E1,1.1E1,2.562857E2,3.2892857E1,1.9E1,-1.9547154E-1,3.81442E-1,4.8769593E-1,1.383976E-1,1.5999742E0,5.424146E-1,5.267145E-1,-8.112116E-1],"split_indices":[29,20,10,6,2,21,9,0,0,0,0,0,0,0,0],"split_type":[0,0,0,0,0,0,0,0,0,0,0,0,0,0,0],"sum_hessian":[5.42E2,4.78E2,6.4E1,4.67E2,1.1E1,5.7E1,7E0,4.61E2,6E0,1E1,1E0,4.9E1,8E0,5E0,2E0],"tree_param":{"num_deleted":"0","num_feature":"30","num_nodes":"15","size_leaf_vector":"1"}},{"base_weights":[3.740245E-1,-3.1089454E0,2.5874327E1,-3.8530283E0,1.2617787E0,3.3032635E1,1.7931946E1,-1.9866864E-1,3.308675E-1,1.0075972E-1,-8.118119E-1,7.547398E-1,1.8229878E0,1.6880413E0,4.2414618E-1],"categories":[],"categories_nodes":[],"categories_segments":[],"categories_sizes":[],"default_left":[0,0,0,0,0,0,0,0,0,0,0,0,0,0,0],"id":39,"left_children":[1,3,5,7,9,11,13,-1,-1,-1,-1,-1,-1,-1,-1],"loss_changes":[4.8041504E4,1.5528994E3,3.1031719E3,5.3913525E2,9.555489E2,1.4783242E3,4.649335E3,0E0,0E0,0E0,0E0,0E0,0E0,0E0,0E0],"parents":[2147483647,0,0,1,1,2,2,3,3,4,4,5,5,6,6],"right_children":[2,4,6,8,10,12,14,-1,-1,-1,-1,-1,-1,-1,-1],"split_conditions":[3.98E2,4E0,1.2E1,1E1,1.7E1,8E0,2.6E1,-1.9866864E-1,3.308675E-1,1.0075972E-1,-8.118119E-1,7.547398E-1,1.8229878E0,1.6880413E0,4.2414618E-1],"split_indices":[29,13,10,16,10,10,18,0,0,0,0,0,0,0,0],"split_type":[0,0,0,0,0,0,0,0,0,0,0,0,0,0,0],"sum_hessian":[5.39E2,4.75E2,6.4E1,4.06E2,6.9E1,3.2E1,3.2E1,4.02E2,4E0,6.7E1,2E0,6E0,2.6E1,1.1E1,2.1E1],"tree_param":{"num_deleted":"0","num_feature":"30","num_nodes":"15","size_leaf_vector":"1"}},{"base_weights":[4.1904932E-1,-2.7824345E0,2.4923862E1,-3.6137638E0,2.1744773E0,2.8199547E1,8.379262E0,-2.1111904E-1,-7.5784914E-2,-1.380685E-1,2.7263677E-1,6.1949795E-1,1.5794028E0,1.228387E0,-3.3468065E-1],"categories":[],"categories_nodes":[],"categories_segments":[],"categories_sizes":[],"default_left":[0,0,0,0,0,0,0,0,0,0,0,0,0,0,0],"id":40,"left_children":[1,3,5,7,9,11,13,-1,-1,-1,-1,-1,-1,-1,-1],"loss_changes":[4.3453168E4,2.027063E3,3.2321836E3,5.2990576E2,1.1639067E3,2.4478828E3,3.0925293E3,0E0,0E0,0E0,0E0,0E0,0E0,0E0,0E0],"parents":[2147483647,0,0,1,1,2,2,3,3,4,4,5,5,6,6],"right_children":[2,4,6,8,10,12,14,-1,-1,-1,-1,-1,-1,-1,-1],"split_conditions":[5.209881E0,4E0,1.5E1,1.3542334E2,5.782353E1,8E0,2.2E1,-2.1111904E-1,-7.5784914E-2,-1.380685E-1,2.7263677E-1,6.1949795E-1,1.5794028E0,1.228387E0,-3.3468065E-1],"split_indices":[23,6,10,3,4,10,13,0,0,0,0,0,0,0,0],"split_type":[0,0,0,0,0,0,0,0,0,0,0,0,0,0,0],"sum_hessian":[5.52E2,4.89E2,6.3E1,4.19E2,7E1,5.2E1,1.1E1,3.24E2,9.5E1,2.8E1,4.2E1,1E1,4.2E1,5E0,6E0],"tree_param":{"num_deleted":"0","num_feature":"30","num_nodes":"15","size_leaf_vector":"1"}},{"base_weights":[-2.8774217E-1,-3.1657984E0,1.9328266E1,-4.244128E0,-1.6767646E0,1.6232677E1,2.0644996E0,-2.0237961E-1,-4.8124853E-1,-2.4914598E-2,-2.948614E-1,1.1743029E0,4.236013E-1],"categories":[],"categories_nodes":[],"categories_segments":[],"categories_sizes":[],"default_left":[0,0,0,0,0,0,0,0,0,0,0,0,0],"id":41,"left_children":[1,3,5,7,9,11,-1,-1,-1,-1,-1,-1,-1],"loss_changes":[3.0886152E4,7.587876E2,4.088666E3,2.529209E2,1.001749E3,3.3473574E3,0E0,0E0,0E0,0E0,0E0,0E0,0E0],"parents":[2147483647,0,0,1,1,2,2,3,3,4,4,5,5],"right_children":[2,4,6,8,10,12,-1,-1,-1,-1,-1,-1,-1],"split_conditions":[7.357143E0,6.666667E-1,2.6E1,2.9642856E0,1.5E1,1.2E1,2.0644996E0,-2.0237961E-1,-4.8124853E-1,-2.4914598E-2,-2.948614E-1,1.1743029E0,4.236013E-1],"split_indices":[20,18,9,21,10,10,0,0,0,0,0,0,0],"split_type":[0,0,0,0,0,0,0,0,0,0,0,0,0],"sum_hessian":[5.45E2,4.76E2,6.9E1,2.75E2,2.01E2,6.2E1,7E0,2.67E2,8E0,1.58E2,4.3E1,3.1E1,3.1E1],"tree_param":{"num_deleted":"0","num_feature":"30","num_nodes":"13","size_leaf_vector":"1"}},{"base_weights":[2.8390046E-2,-2.8516736E0,1.847598E1,-3.8835938E0,-7.4337846E-1,2.0982252E1,3.778391E0,-1.7132555E-1,-3.740768E-1,3.2277215E-1,-1.0135861E-1,5.488107E-1,1.3041817E0,7.708241E-1,-9.069574E-2],"categories":[],"categories_nodes":[],"categories_segments":[],"categories_sizes":[],"default_left":[0,0,0,0,0,0,0,0,0,0,0,0,0,0,0],"id":42,"left_children":[1,3,5,7,9,11,13,-1,-1,-1,-1,-1,-1,-1,-1],"loss_changes":[2.9114926E4,1.0283438E3,2.6465938E3,4.9733398E2,1.4640491E3,2.9295117E3,8.089693E2,0E0,0E0,0E0,0E0,0E0,0E0,0E0,0E0],"parents":[2147483647,0,0,1,1,2,2,3,3,4,4,5,5,6,6],"right_children":[2,4,6,8,10,12,14,-1,-1,-1,-1,-1,-1,-1,-1],"split_conditions":[7.5E0,1.5875E2,3.6E1,2.6350944E0,1.741E2,2.4857143E1,9.447922E0,-1.7132555E-1,-3.740768E-1,3.2277215E-1,-1.0135861E-1,5.488107E-1,1.3041817E0,7.708241E-1,-9.069574E-2],"split_indices":[20,2,17,25,2,20,25,0,0,0,0,0,0,0,0],"split_type":[0,0,0,0,0,0,0,0,0,0,0,0,0,0,0],"sum_hessian":[5.46E2,4.73E2,7.3E1,3.17E2,1.56E2,6.2E1,1.1E1,2.83E2,3.4E1,2.3E1,1.33E2,2.2E1,4E1,3E0,8E0],"tree_param":{"num_deleted":"0","num_feature":"30","num_nodes":"15","size_leaf_vector":"1"}},{"base_weights":[2.9267785E-1,-2.2944615E0,2.0217163E1,-3.5305192E0,5.55527E-1,2.2577019E1,-6.3576074E0,-1.7008333E-1,-4.6239492E-1,8.475134E-1,-1.8277308E-2,1.3688117E0,7.716387E-1,-8.0890864E-1,1.2986092E-1],"categories":[],"categories_nodes":[],"categories_segments":[],"categories_sizes":[],"default_left":[0,0,0,0,0,0,0,0,0,0,0,0,0,0,0],"id":43,"left_children":[1,3,5,7,9,11,13,-1,-1,-1,-1,-1,-1,-1,-1],"loss_changes":[2.8706754E4,1.7386768E3,4.1571445E3,2.2196582E2,2.2713096E3,1.6004277E3,5.6966705E2,0E0,0E0,0E0,0E0,0E0,0E0,0E0,0E0],"parents":[2147483647,0,0,1,1,2,2,3,3,4,4,5,5,6,6],"right_children":[2,4,6,8,10,12,14,-1,-1,-1,-1,-1,-1,-1,-1],"split_conditions":[3.98E2,6.3E1,1.6E1,5.1E1,1.9612651E0,3.05E1,1.5503667E2,-1.7008333E-1,-4.6239492E-1,8.475134E-1,-1.8277308E-2,1.3688117E0,7.716387E-1,-8.0890864E-1,1.2986092E-1],"split_indices":[29,29,10,28,25,21,3,0,0,0,0,0,0,0,0],"split_type":[0,0,0,0,0,0,0,0,0,0,0,0,0,0,0],"sum_hessian":[5.55E2,4.92E2,6.3E1,3.43E2,1.49E2,5.8E1,5E0,3.37E2,6E0,7E0,1.42E2,3.3E1,2.5E1,2E0,3E0],"tree_param":{"num_deleted":"0","num_feature":"30","num_nodes":"15","size_leaf_vector":"1"}},{"base_weights":[-3.0084495E-2,-2.4922092E0,1.8690357E1,-3.7288687E0,-2.6323628E-1,1.5226116E1,3.2144535E1,-1.6554143E-1,-3.6787298E-1,5.126701E-2,-3.6106724E-1,1.0667447E0,4.3898305E-1,1.9259008E0,4.8840353E-1],"categories":[],"categories_nodes":[],"categories_segments":[],"categories_sizes":[],"default_left":[0,0,0,0,0,0,0,0,0,0,0,0,0,0,0],"id":44,"left_children":[1,3,5,7,9,11,13,-1,-1,-1,-1,-1,-1,-1,-1],"loss_changes":[2.4982385E4,1.3193726E3,2.4469023E3,4.4284473E2,1.5495658E3,1.8604443E3,1.3351445E3,0E0,0E0,0E0,0E0,0E0,0E0,0E0,0E0],"parents":[2147483647,0,0,1,1,2,2,3,3,4,4,5,5,6,6],"right_children":[2,4,6,8,10,12,14,-1,-1,-1,-1,-1,-1,-1,-1],"split_conditions":[6.999215E0,1.5875E2,2.4E1,3.3633568E0,1.6E1,9.447922E0,3.0928572E1,-1.6554143E-1,-3.6787298E-1,5.126701E-2,-3.6106724E-1,1.0667447E0,4.3898305E-1,1.9259008E0,4.8840353E-1],"split_indices":[24,2,9,25,10,25,20,0,0,0,0,0,0,0,0],"split_type":[0,0,0,0,0,0,0,0,0,0,0,0,0,0,0],"sum_hessian":[5.4E2,4.78E2,6.2E1,3.07E2,1.71E2,5.1E1,1.1E1,2.77E2,3E1,1.45E2,2.6E1,2.5E1,2.6E1,8E0,3E0],"tree_param":{"num_deleted":"0","num_feature":"30","num_nodes":"15","size_leaf_vector":"1"}},{"base_weights":[8.9918405E-2,-2.5194628E0,1.6431702E1,-2.7468572E0,4.1897984E0,2.2839842E1,9.766549E0,-1.2234894E-1,-4.0525922E-1,4.0358648E-1,-9.771802E-2,6.320936E-1,1.5246674E0,9.856016E-1,9.954535E-2],"categories":[],"categories_nodes":[],"categories_segments":[],"categories_sizes":[],"default_left":[0,0,0,0,0,0,0,0,0,0,0,0,0,0,0],"id":45,"left_children":[1,3,5,7,9,11,13,-1,-1,-1,-1,-1,-1,-1,-1],"loss_changes":[2.3537111E4,7.3771655E2,3.0229863E3,7.2092285E2,3.9739435E2,2.580416E3,2.9767231E3,0E0,0E0,0E0,0E0,0E0,0E0,0E0,0E0],"parents":[2147483647,0,0,1,1,2,2,3,3,4,4,5,5,6,6],"right_children":[2,4,6,8,10,12,14,-1,-1,-1,-1,-1,-1,-1,-1],"split_conditions":[1.03E2,8E0,1.2E1,3.7857144E0,3.7142856E0,3E1,2.4E1,-1.2234894E-1,-4.0525922E-1,4.0358648E-1,-9.771802E-2,6.320936E-1,1.5246674E0,9.856016E-1,9.954535E-2],"split_indices":[28,13,10,21,21,19,18,0,0,0,0,0,0,0,0],"split_type":[0,0,0,0,0,0,0,0,0,0,0,0,0,0,0],"sum_hessian":[5.5E2,4.75E2,7.5E1,4.6E2,1.5E1,3.7E1,3.8E1,4.37E2,2.3E1,9E0,6E0,1.7E1,2E1,1.6E1,2.2E1],"tree_param":{"num_deleted":"0","num_feature":"30","num_nodes":"15","size_leaf_vector":"1"}},{"base_weights":[2.2591212E-1,-2.3478532E0,1.7524197E1,-2.5342495E0,7.7713094E0,1.4643317E1,2.9472551E1,-1.0682654E-1,-4.534517E-1,8.759327E-2,4.620442E-1,5.677425E-1,1.231861E0,1.5943216E0,5.398733E-1],"categories":[],"categories_nodes":[],"categories_segments":[],"categories_sizes":[],"default_left":[0,0,0,0,0,0,0,0,0,0,0,0,0,0,0],"id":46,"left_children":[1,3,5,7,9,11,13,-1,-1,-1,-1,-1,-1,-1,-1],"loss_changes":[2.4750703E4,9.3260254E2,2.046793E3,1.2177502E3,6.3425354E1,1.692124E3,2.4174023E2,0E0,0E0,0E0,0E0,0E0,0E0,0E0,0E0],"parents":[2147483647,0,0,1,1,2,2,3,3,4,4,5,5,6,6],"right_children":[2,4,6,8,10,12,14,-1,-1,-1,-1,-1,-1,-1,-1],"split_conditions":[1.1E1,7.428571E0,2.5E1,3.7857144E0,2.828427E0,3.4E1,3.0928572E1,-1.0682654E-1,-4.534517E-1,8.759327E-2,4.620442E-1,5.677425E-1,1.231861E0,1.5943216E0,5.398733E-1],"split_indices":[6,19,9,21,23,16,20,0,0,0,0,0,0,0,0],"split_type":[0,0,0,0,0,0,0,0,0,0,0,0,0,0,0],"sum_hessian":[5.54E2,4.83E2,7.1E1,4.75E2,8E0,5.9E1,1.2E1,4.49E2,2.6E1,2E0,6E0,4.6E1,1.3E1,1E1,2E0],"tree_param":{"num_deleted":"0","num_feature":"30","num_nodes":"15","size_leaf_vector":"1"}},{"base_weights":[2.2674195E-1,-1.6299807E0,1.928194E1,-1.9942428E0,1.0353631E1,3.0821827E1,1.158711E1,-1.4812647E-1,9.639951E-3,2.3371354E-1,7.369394E-1,1.7703393E0,7.493312E-1,3.088679E-2,1.0292187E0],"categories":[],"categories_nodes":[],"categories_segments":[],"categories_sizes":[],"default_left":[0,0,0,0,0,0,0,0,0,0,0,0,0,0,0],"id":47,"left_children":[1,3,5,7,9,11,13,-1,-1,-1,-1,-1,-1,-1,-1],"loss_changes":[1.952593E4,2.216331E3,3.9939375E3,1.0361179E3,3.0468005E2,8.488457E2,3.0468096E3,0E0,0E0,0E0,0E0,0E0,0E0,0E0,0E0],"parents":[2147483647,0,0,1,1,2,2,3,3,4,4,5,5,6,6],"right_children":[2,4,6,8,10,12,14,-1,-1,-1,-1,-1,-1,-1,-1],"split_conditions":[2.5E1,6.8487053E0,9.447922E0,6.3E1,1.3E1,3.4E1,5.6153847E1,-1.4812647E-1,9.639951E-3,2.3371354E-1,7.369394E-1,1.7703393E0,7.493312E-1,3.088679E-2,1.0292187E0],"split_indices":[20,23,25,29,9,19,4,0,0,0,0,0,0,0,0],"split_type":[0,0,0,0,0,0,0,0,0,0,0,0,0,0,0],"sum_hessian":[5.5E2,5.02E2,4.8E1,4.88E2,1.4E1,1.8E1,3E1,3.38E2,1.5E2,7E0,7E0,1.3E1,5E0,1.4E1,1.6E1],"tree_param":{"num_deleted":"0","num_feature":"30","num_nodes":"15","size_leaf_vector":"1"}},{"base_weights":[1.3479045E-1,-1.8167294E0,1.8859283E1,-2.6172009E0,2.4084547E0,2.7184244E1,1.2342882E1,-1.1231454E-1,-3.8648587E-1,5.101543E-1,7.159393E-3,1.5912914E0,6.345721E-1,9.430669E-2,1.0421686E0],"categories":[],"categories_nodes":[],"categories_segments":[],"categories_sizes":[],"default_left":[0,0,0,0,0,0,0,0,0,0,0,0,0,0,0],"id":48,"left_children":[1,3,5,7,9,11,13,-1,-1,-1,-1,-1,-1,-1,-1],"loss_changes":[2.0131934E4,1.6939908E3,2.4854043E3,7.790759E2,1.4110925E3,1.0760146E3,2.7161987E3,0E0,0E0,0E0,0E0,0E0,0E0,0E0,0E0],"parents":[2147483647,0,0,1,1,2,2,3,3,4,4,5,5,6,6],"right_children":[2,4,6,8,10,12,14,-1,-1,-1,-1,-1,-1,-1,-1],"split_conditions":[2.5E1,2.7305758E0,9.447922E0,8.6E1,2.9744947E0,8.84E2,5.6153847E1,-1.1231454E-1,-3.8648587E-1,5.101543E-1,7.159393E-3,1.5912914E0,6.345721E-1,9.430669E-2,1.0421686E0],"split_indices":[20,24,25,29,25,29,4,0,0,0,0,0,0,0,0],"split_type":[0,0,0,0,0,0,0,0,0,0,0,0,0,0,0],"sum_hessian":[5.49E2,4.98E2,5.1E1,4.19E2,7.9E1,2.1E1,3E1,3.92E2,2.7E1,1.7E1,6.2E1,1.5E1,6E0,1.4E1,1.6E1],"tree_param":{"num_deleted":"0","num_feature":"30","num_nodes":"15","size_leaf_vector":"1"}},{"base_weights":[2.2470924E-1,-1.908784E0,1.5186431E1,-2.4172215E0,1.7837793E0,1.1880959E1,2.755968E1,-1.2618582E-1,4.8043138E-1,4.9254748E-1,-8.173295E-2,6.353978E-1,-8.607716E-1,6.040217E-1,1.7408495E0],"categories":[],"categories_nodes":[],"categories_segments":[],"categories_sizes":[],"default_left":[0,0,0,0,0,0,0,0,0,0,0,0,0,0,0],"id":49,"left_children":[1,3,5,7,9,11,13,-1,-1,-1,-1,-1,-1,-1,-1],"loss_changes":[1.7904598E4,9.261339E2,2.5355234E3,5.775066E2,1.6707303E3,1.5903423E3,1.152124E3,0E0,0E0,0E0,0E0,0E0,0E0,0E0,0E0],"parents":[2147483647,0,0,1,1,2,2,3,3,4,4,5,5,6,6],"right_children":[2,4,6,8,10,12,14,-1,-1,-1,-1,-1,-1,-1,-1],"split_conditions":[5.209881E0,2.7305758E0,2.4E1,1.1E1,3.5714285E0,1.7E1,2.6E1,-1.2618582E-1,4.8043138E-1,4.9254748E-1,-8.173295E-2,6.353978E-1,-8.607716E-1,6.040217E-1,1.7408495E0],"split_indices":[23,24,9,6,20,10,6,0,0,0,0,0,0,0,0],"split_type":[0,0,0,0,0,0,0,0,0,0,0,0,0,0,0],"sum_hessian":[5.59E2,4.9E2,6.9E1,4.31E2,5.9E1,5.6E1,1.3E1,4.28E2,3E0,1.7E1,4.2E1,5.5E1,1E0,5E0,8E0],"tree_param":{"num_deleted":"0","num_feature":"30","num_nodes":"15","size_leaf_vector":"1"}},{"base_weights":[5.106009E-1,-1.276328E0,1.8124613E1,-1.848502E0,6.6706758E0,2.2694283E1,7.6503186E0,-1.0136761E-1,3.76893E-1,4.5044228E-1,-6.558904E-1,1.3382577E0,2.8047258E-1,5.069379E-2,8.493056E-1],"categories":[],"categories_nodes":[],"categories_segments":[],"categories_sizes":[],"default_left":[0,0,0,0,0,0,0,0,0,0,0,0,0,0,0],"id":50,"left_children":[1,3,5,7,9,11,13,-1,-1,-1,-1,-1,-1,-1,-1],"loss_changes":[1.7428803E4,2.2995066E3,2.2674492E3,8.042954E2,1.6913167E3,2.2841172E3,1.0360381E3,0E0,0E0,0E0,0E0,0E0,0E0,0E0,0E0],"parents":[2147483647,0,0,1,1,2,2,3,3,4,4,5,5,6,6],"right_children":[2,4,6,8,10,12,14,-1,-1,-1,-1,-1,-1,-1,-1],"split_conditions":[2.5E1,8E0,3.1571428E1,7.357143E0,2.3178572E1,3.5E1,1.1127631E1,-1.0136761E-1,3.76893E-1,4.5044228E-1,-6.558904E-1,1.3382577E0,2.8047258E-1,5.069379E-2,8.493056E-1],"split_indices":[20,6,21,20,21,18,24,0,0,0,0,0,0,0,0],"split_type":[0,0,0,0,0,0,0,0,0,0,0,0,0,0,0],"sum_hessian":[5.52E2,5.02E2,5E1,4.69E2,3.3E1,3.4E1,1.6E1,4.61E2,8E0,3E1,3E0,2.7E1,7E0,1E1,6E0],"tree_param":{"num_deleted":"0","num_feature":"30","num_nodes":"15","size_leaf_vector":"1"}},{"base_weights":[3.3248547E-1,-1.6507512E0,1.4772591E1,-2.5152864E0,3.1410325E-1,1.1507685E1,2.5323753E1,-1.1891009E-1,-4.338641E-1,7.116519E-1,-1.8234646E-2,4.2858082E-1,1.1637809E0,1.3925177E0,-2.5121614E-1],"categories":[],"categories_nodes":[],"categories_segments":[],"categories_sizes":[],"default_left":[0,0,0,0,0,0,0,0,0,0,0,0,0,0,0],"id":51,"left_children":[1,3,5,7,9,11,13,-1,-1,-1,-1,-1,-1,-1,-1],"loss_changes":[1.5889919E4,8.297488E2,2.0166357E3,2.657224E2,1.4224087E3,1.6317178E3,1.2900908E3,0E0,0E0,0E0,0E0,0E0,0E0,0E0,0E0],"parents":[2147483647,0,0,1,1,2,2,3,3,4,4,5,5,6,6],"right_children":[2,4,6,8,10,12,14,-1,-1,-1,-1,-1,-1,-1,-1],"split_conditions":[1.7E1,6.2E1,3.4E1,3.642857E0,1.9612651E0,2.5E1,6.5E1,-1.1891009E-1,-4.338641E-1,7.116519E-1,-1.8234646E-2,4.2858082E-1,1.1637809E0,1.3925177E0,-2.5121614E-1],"split_indices":[6,29,16,20,25,9,16,0,0,0,0,0,0,0,0],"split_type":[0,0,0,0,0,0,0,0,0,0,0,0,0,0,0],"sum_hessian":[5.53E2,4.87E2,6.6E1,3.38E2,1.49E2,5.2E1,1.4E1,3.32E2,6E0,6E0,1.43E2,4.3E1,9E0,1.3E1,1E0],"tree_param":{"num_deleted":"0","num_feature":"30","num_nodes":"15","size_leaf_vector":"1"}},{"base_weights":[3.960949E-1,-1.182993E0,1.5900545E1,-1.7151345E0,5.738144E0,2.38852E1,9.978663E0,-1.2913121E-1,-1.0174236E-2,4.060733E-1,-5.3313714E-1,1.419352E0,5.413113E-1,-2.702128E-2,7.8955925E-1],"categories":[],"categories_nodes":[],"categories_segments":[],"categories_sizes":[],"default_left":[0,0,0,0,0,0,0,0,0,0,0,0,0,0,0],"id":52,"left_children":[1,3,5,7,9,11,13,-1,-1,-1,-1,-1,-1,-1,-1],"loss_changes":[1.3508882E4,1.8550366E3,2.1731504E3,6.105593E2,1.4937863E3,9.272529E2,1.9039492E3,0E0,0E0,0E0,0E0,0E0,0E0,0E0,0E0],"parents":[2147483647,0,0,1,1,2,2,3,3,4,4,5,5,6,6],"right_children":[2,4,6,8,10,12,14,-1,-1,-1,-1,-1,-1,-1,-1],"split_conditions":[2.5571428E1,8E0,9.447922E0,7.1428573E-1,1.6E1,3.1857143E1,2.9784073E2,-1.2913121E-1,-1.0174236E-2,4.060733E-1,-5.3313714E-1,1.419352E0,5.413113E-1,-2.702128E-2,7.8955925E-1],"split_indices":[20,13,25,19,10,21,5,0,0,0,0,0,0,0,0],"split_type":[0,0,0,0,0,0,0,0,0,0,0,0,0,0,0],"sum_hessian":[5.5E2,5E2,5E1,4.65E2,3.5E1,2E1,3E1,2.95E2,1.7E2,3.1E1,4E0,1.4E1,6E0,1.1E1,1.9E1],"tree_param":{"num_deleted":"0","num_feature":"30","num_nodes":"15","size_leaf_vector":"1"}},{"base_weights":[2.2697958E-1,-1.6453253E0,1.2406675E1,-1.3207033E0,-6.4165273E0,9.6881695E0,2.4208382E1,-8.124036E-2,4.4666415E-1,3.4805313E-1,-4.3711758E-1,5.6870145E-1,-1.4511983E-1,4.5450836E-1,1.4958786E0],"categories":[],"categories_nodes":[],"categories_segments":[],"categories_sizes":[],"default_left":[0,0,0,0,0,0,0,0,0,0,0,0,0,0,0],"id":53,"left_children":[1,3,5,7,9,11,13,-1,-1,-1,-1,-1,-1,-1,-1],"loss_changes":[1.2494258E4,7.2722314E2,2.1075244E3,1.4052668E3,9.942738E2,1.3277925E3,8.5011035E2,0E0,0E0,0E0,0E0,0E0,0E0,0E0,0E0],"parents":[2147483647,0,0,1,1,2,2,3,3,4,4,5,5,6,6],"right_children":[2,4,6,8,10,12,14,-1,-1,-1,-1,-1,-1,-1,-1],"split_conditions":[7.357143E0,3.7857144E0,2.4E1,8E0,5E0,2E1,2.6E1,-8.124036E-2,4.4666415E-1,3.4805313E-1,-4.3711758E-1,5.6870145E-1,-1.4511983E-1,4.5450836E-1,1.4958786E0],"split_indices":[20,21,9,6,9,9,6,0,0,0,0,0,0,0,0],"split_type":[0,0,0,0,0,0,0,0,0,0,0,0,0,0,0],"sum_hessian":[5.46E2,4.74E2,7.2E1,4.45E2,2.9E1,6E1,1.2E1,4.33E2,1.2E1,4E0,2.5E1,5.3E1,7E0,4E0,8E0],"tree_param":{"num_deleted":"0","num_feature":"30","num_nodes":"15","size_leaf_vector":"1"}},{"base_weights":[1.6472726E-1,-1.3887464E0,1.2589859E1,-1.552725E0,1.2261625E1,1.7449848E1,7.7901773E0,-1.0118536E-1,5.4331925E-2,-3.7425544E-2,9.476911E-1,2.7960956E-1,1.0090626E0,-8.3626695E-2,7.425365E-1],"categories":[],"categories_nodes":[],"categories_segments":[],"categories_sizes":[],"default_left":[0,0,0,0,0,0,0,0,0,0,0,0,0,0,0],"id":54,"left_children":[1,3,5,7,9,11,13,-1,-1,-1,-1,-1,-1,-1,-1],"loss_changes":[1.0768762E4,1.1292698E3,1.3103008E3,6.125576E2,5.3658545E2,8.587842E2,2.2296333E3,0E0,0E0,0E0,0E0,0E0,0E0,0E0,0E0],"parents":[2147483647,0,0,1,1,2,2,3,3,4,4,5,5,6,6],"right_children":[2,4,6,8,10,12,14,-1,-1,-1,-1,-1,-1,-1,-1],"split_conditions":[6.999215E0,7.55E1,9.447922E0,4E0,2E1,2.2357143E1,5.6153847E1,-1.0118536E-1,5.4331925E-2,-3.7425544E-2,9.476911E-1,2.7960956E-1,1.0090626E0,-8.3626695E-2,7.425365E-1],"split_indices":[24,4,25,13,9,20,4,0,0,0,0,0,0,0,0],"split_type":[0,0,0,0,0,0,0,0,0,0,0,0,0,0,0],"sum_hessian":[5.56E2,4.95E2,6.1E1,4.9E2,5E0,2.9E1,3.2E1,4.16E2,7.4E1,2E0,3E0,6E0,2.3E1,1.4E1,1.8E1],"tree_param":{"num_deleted":"0","num_feature":"30","num_nodes":"15","size_leaf_vector":"1"}},{"base_weights":[-4.302829E-2,-1.7001313E0,1.0850236E1,-1.5794524E0,-6.5812546E-1,8.249646E0,2.261846E1,-8.728274E-2,6.0453945E-1,5.442769E-1,-8.7675415E-2,4.3067095E-1,1.3942938E0],"categories":[],"categories_nodes":[],"categories_segments":[],"categories_sizes":[],"default_left":[0,0,0,0,0,0,0,0,0,0,0,0,0],"id":55,"left_children":[1,3,5,7,-1,9,11,-1,-1,-1,-1,-1,-1],"loss_changes":[1.0253512E4,6.6116174E2,2.1087295E3,1.1321277E3,0E0,1.6802227E3,7.1882275E2,0E0,0E0,0E0,0E0,0E0,0E0],"parents":[2147483647,0,0,1,1,2,2,3,3,5,5,6,6],"right_children":[2,4,6,8,-1,10,12,-1,-1,-1,-1,-1,-1],"split_conditions":[7.5E0,5.892857E0,2.4E1,7.55E1,-6.5812546E-1,1.8E1,2.6E1,-8.728274E-2,6.0453945E-1,5.442769E-1,-8.7675415E-2,4.3067095E-1,1.3942938E0],"split_indices":[20,21,9,4,0,9,6,0,0,0,0,0,0],"split_type":[0,0,0,0,0,0,0,0,0,0,0,0,0],"sum_hessian":[5.66E2,4.92E2,7.4E1,4.88E2,4E0,6.2E1,1.2E1,4.83E2,5E0,4.9E1,1.3E1,4E0,8E0],"tree_param":{"num_deleted":"0","num_feature":"30","num_nodes":"13","size_leaf_vector":"1"}},{"base_weights":[1.03507735E-1,-1.3238912E0,1.1497602E1,-2.2815945E0,3.965946E-1,1.2233082E1,-8.157795E-1,-9.279662E-2,-3.1930748E-1,3.2546008E-1,-3.0902643E-2,7.488469E-1,1.5015262E-1],"categories":[],"categories_nodes":[],"categories_segments":[],"categories_sizes":[],"default_left":[0,0,0,0,0,0,0,0,0,0,0,0,0],"id":56,"left_children":[1,3,5,7,9,11,-1,-1,-1,-1,-1,-1,-1],"loss_changes":[8.911585E3,8.03342E2,1.4474087E3,5.3500684E2,1.0893977E3,1.4745752E3,0E0,0E0,0E0,0E0,0E0,0E0,0E0],"parents":[2147483647,0,0,1,1,2,2,3,3,4,4,5,5],"right_children":[2,4,6,8,10,12,-1,-1,-1,-1,-1,-1,-1],"split_conditions":[1.7E1,1.5875E2,1.7E1,2.4806948E0,1.741E2,3.6E1,-8.157795E-1,-9.279662E-2,-3.1930748E-1,3.2546008E-1,-3.0902643E-2,7.488469E-1,1.5015262E-1],"split_indices":[6,2,10,24,2,17,0,0,0,0,0,0,0],"split_type":[0,0,0,0,0,0,0,0,0,0,0,0,0],"sum_hessian":[5.46E2,4.86E2,6E1,3.12E2,1.74E2,5.9E1,1E0,2.84E2,2.8E1,2.4E1,1.5E2,4.5E1,1.4E1],"tree_param":{"num_deleted":"0","num_feature":"30","num_nodes":"13","size_leaf_vector":"1"}},{"base_weights":[9.7453535E-2,-1.3942604E0,9.140916E0,-1.2732512E0,-6.3056433E-1,7.3120966E0,2.255261E1,-7.3225684E-2,5.037381E-1,6.025353E-1,1.4399324E-1,1.2422271E0,4.843618E-1],"categories":[],"categories_nodes":[],"categories_segments":[],"categories_sizes":[],"default_left":[0,0,0,0,0,0,0,0,0,0,0,0,0],"id":57,"left_children":[1,3,5,7,-1,9,11,-1,-1,-1,-1,-1,-1],"loss_changes":[7.526819E3,6.3412E2,1.7727705E3,1.0457181E3,0E0,1.4564817E3,2.4704102E1,0E0,0E0,0E0,0E0,0E0,0E0],"parents":[2147483647,0,0,1,1,2,2,3,3,5,5,6,6],"right_children":[2,4,6,8,-1,10,12,-1,-1,-1,-1,-1,-1],"split_conditions":[7.428571E0,5.892857E0,2.6E1,7.55E1,-6.3056433E-1,1.2E1,3.063889E2,-7.3225684E-2,5.037381E-1,6.025353E-1,1.4399324E-1,1.2422271E0,4.843618E-1],"split_indices":[19,21,9,4,0,10,5,0,0,0,0,0,0],"split_type":[0,0,0,0,0,0,0,0,0,0,0,0,0],"sum_hessian":[5.56E2,4.78E2,7.8E1,4.74E2,4E0,7E1,8E0,4.67E2,7E0,3.3E1,3.7E1,6E0,2E0],"tree_param":{"num_deleted":"0","num_feature":"30","num_nodes":"13","size_leaf_vector":"1"}},{"base_weights":[4.4095156E-1,-9.318314E-1,1.3675624E1,-1.455463E0,3.0898392E0,1.82084E1,6.3331604E0,-6.059417E-2,-4.10557E-1,2.7908465E-1,-3.9190337E-1,1.0164158E0,-5.9155084E-2,7.8296727E-1,-9.8321155E-2],"categories":[],"categories_nodes":[],"categories_segments":[],"categories_sizes":[],"default_left":[0,0,0,0,0,0,0,0,0,0,0,0,0,0,0],"id":58,"left_children":[1,3,5,7,9,11,13,-1,-1,-1,-1,-1,-1,-1,-1],"loss_changes":[9.8599795E3,1.0405872E3,1.5820527E3,7.075068E2,1.5959023E3,1.2984082E3,1.6562654E3,0E0,0E0,0E0,0E0,0E0,0E0,0E0,0E0],"parents":[2147483647,0,0,1,1,2,2,3,3,4,4,5,5,6,6],"right_children":[2,4,6,8,10,12,14,-1,-1,-1,-1,-1,-1,-1,-1],"split_conditions":[2.5E1,4E0,3.3E1,3.4285715E0,1.6E1,3.6E1,1.2E1,-6.059417E-2,-4.10557E-1,2.7908465E-1,-3.9190337E-1,1.0164158E0,-5.9155084E-2,7.8296727E-1,-9.8321155E-2],"split_indices":[20,19,19,21,10,17,10,0,0,0,0,0,0,0,0],"split_type":[0,0,0,0,0,0,0,0,0,0,0,0,0,0,0],"sum_hessian":[5.41E2,4.91E2,5E1,4.35E2,5.6E1,3E1,2E1,4.21E2,1.4E1,4.6E1,1E1,2.7E1,3E0,9E0,1.1E1],"tree_param":{"num_deleted":"0","num_feature":"30","num_nodes":"15","size_leaf_vector":"1"}},{"base_weights":[1.2911911E-1,-9.725025E-1,1.0867447E1,-1.1604278E0,7.606713E0,1.843458E1,5.9519887E0,-4.925806E-2,-4.0810114E-1,5.41124E-2,5.590186E-1,1.0083117E0,9.498978E-2,-4.1871396E-1,5.065574E-1],"categories":[],"categories_nodes":[],"categories_segments":[],"categories_sizes":[],"default_left":[0,0,0,0,0,0,0,0,0,0,0,0,0,0,0],"id":59,"left_children":[1,3,5,7,9,11,13,-1,-1,-1,-1,-1,-1,-1,-1],"loss_changes":[6.611471E3,8.2623865E2,1.8244653E3,6.018505E2,2.4437842E2,5.343384E2,2.0606091E3,0E0,0E0,0E0,0E0,0E0,0E0,0E0,0E0],"parents":[2147483647,0,0,1,1,2,2,3,3,4,4,5,5,6,6],"right_children":[2,4,6,8,10,12,14,-1,-1,-1,-1,-1,-1,-1,-1],"split_conditions":[2.5E1,7.4801326E0,9.447922E0,1.65E2,1.3E1,4.7E1,9.577863E0,-4.925806E-2,-4.0810114E-1,5.41124E-2,5.590186E-1,1.0083117E0,9.498978E-2,-4.1871396E-1,5.065574E-1],"split_indices":[20,23,25,29,9,6,25,0,0,0,0,0,0,0,0],"split_type":[0,0,0,0,0,0,0,0,0,0,0,0,0,0,0],"sum_hessian":[5.57E2,5.06E2,5.1E1,4.96E2,1E1,1.9E1,3.2E1,4.85E2,1.1E1,4E0,6E0,1.7E1,2E0,7E0,2.5E1],"tree_param":{"num_deleted":"0","num_feature":"30","num_nodes":"15","size_leaf_vector":"1"}},{"base_weights":[2.6108795E-1,-1.1026639E0,9.630804E0,-1.5089576E0,1.820714E0,6.854778E0,1.953765E1,-5.567617E-2,-3.5661864E-1,4.2731905E-1,-5.185119E-2,3.766801E-1,-7.789847E-1,1.1462816E0,4.0882784E-1],"categories":[],"categories_nodes":[],"categories_segments":[],"categories_sizes":[],"default_left":[0,0,0,0,0,0,0,0,0,0,0,0,0,0,0],"id":60,"left_children":[1,3,5,7,9,11,13,-1,-1,-1,-1,-1,-1,-1,-1],"loss_changes":[7.140725E3,5.8236945E2,1.8186924E3,9.4602155E2,1.1620745E3,9.854282E2,3.8991455E2,0E0,0E0,0E0,0E0,0E0,0E0,0E0,0E0],"parents":[2147483647,0,0,1,1,2,2,3,3,4,4,5,5,6,6],"right_children":[2,4,6,8,10,12,14,-1,-1,-1,-1,-1,-1,-1,-1],"split_conditions":[1.1E1,2.7305758E0,2.4E1,8.6E1,2.9744947E0,1.7E1,3.1428572E1,-5.567617E-2,-3.5661864E-1,4.2731905E-1,-5.185119E-2,3.766801E-1,-7.789847E-1,1.1462816E0,4.0882784E-1],"split_indices":[6,24,9,29,25,10,21,0,0,0,0,0,0,0,0],"split_type":[0,0,0,0,0,0,0,0,0,0,0,0,0,0,0],"sum_hessian":[5.57E2,4.87E2,7E1,4.28E2,5.9E1,5.6E1,1.4E1,4.01E2,2.7E1,1.7E1,4.2E1,5.5E1,1E0,1E1,4E0],"tree_param":{"num_deleted":"0","num_feature":"30","num_nodes":"15","size_leaf_vector":"1"}},{"base_weights":[1.6448916E-1,-9.172061E-1,1.0562242E1,-1.8163733E0,9.7004646E-1,1.6709652E1,5.8588467E0,-8.512124E-2,-4.5438272E-1,8.0875826E-1,8.950387E-3,1.6457532E-1,1.0231274E0,6.6250986E-1,-1.4543031E-1],"categories":[],"categories_nodes":[],"categories_segments":[],"categories_sizes":[],"default_left":[0,0,0,0,0,0,0,0,0,0,0,0,0,0,0],"id":61,"left_children":[1,3,5,7,9,11,13,-1,-1,-1,-1,-1,-1,-1,-1],"loss_changes":[6.2068945E3,8.5023987E2,1.4056128E3,2.6540808E2,1.9456143E3,1.040499E3,2.0474421E3,0E0,0E0,0E0,0E0,0E0,0E0,0E0,0E0],"parents":[2147483647,0,0,1,1,2,2,3,3,4,4,5,5,6,6],"right_children":[2,4,6,8,10,12,14,-1,-1,-1,-1,-1,-1,-1,-1],"split_conditions":[2.5E1,6.3E1,1.2E1,3.5E0,2.392857E0,7E0,2.9142857E1,-8.512124E-2,-4.5438272E-1,8.0875826E-1,8.950387E-3,1.6457532E-1,1.0231274E0,6.6250986E-1,-1.4543031E-1],"split_indices":[20,29,10,21,21,9,19,0,0,0,0,0,0,0,0],"split_type":[0,0,0,0,0,0,0,0,0,0,0,0,0,0,0],"sum_hessian":[5.5E2,4.99E2,5.1E1,3.38E2,1.61E2,2.1E1,3E1,3.34E2,4E0,7E0,1.54E2,5E0,1.6E1,1.6E1,1.4E1],"tree_param":{"num_deleted":"0","num_feature":"30","num_nodes":"15","size_leaf_vector":"1"}},{"base_weights":[1.6702846E-1,-8.5789984E-1,1.0747574E1,-1.3611861E0,2.007551E0,1.6455976E1,5.878557E0,-5.9695322E-2,-5.6614965E-1,1.3857718E-1,-6.2185997E-1,1.0022734E0,2.950287E-1,7.417493E-2,9.4259024E-1],"categories":[],"categories_nodes":[],"categories_segments":[],"categories_sizes":[],"default_left":[0,0,0,0,0,0,0,0,0,0,0,0,0,0,0],"id":62,"left_children":[1,3,5,7,9,11,13,-1,-1,-1,-1,-1,-1,-1,-1],"loss_changes":[6.016963E3,7.324566E2,1.2651841E3,7.04703E2,8.731818E2,7.152676E2,1.5685427E3,0E0,0E0,0E0,0E0,0E0,0E0,0E0,0E0],"parents":[2147483647,0,0,1,1,2,2,3,3,4,4,5,5,6,6],"right_children":[2,4,6,8,10,12,14,-1,-1,-1,-1,-1,-1,-1,-1],"split_conditions":[2.5E1,2.7305758E0,9.49213E0,3.7857144E0,2.3178572E1,3.1857143E1,3.8E1,-5.9695322E-2,-5.6614965E-1,1.3857718E-1,-6.2185997E-1,1.0022734E0,2.950287E-1,7.417493E-2,9.4259024E-1],"split_indices":[20,24,25,21,21,21,16,0,0,0,0,0,0,0,0],"split_type":[0,0,0,0,0,0,0,0,0,0,0,0,0,0,0],"sum_hessian":[5.53E2,5.05E2,4.8E1,4.3E2,7.5E1,2.1E1,2.7E1,4.24E2,6E0,7.2E1,3E0,1.5E1,6E0,2.1E1,6E0],"tree_param":{"num_deleted":"0","num_feature":"30","num_nodes":"15","size_leaf_vector":"1"}},{"base_weights":[1.9608828E-1,-6.326095E-1,9.509976E0,-1.7072699E0,8.657747E-1,1.4977135E1,4.5371647E0,-7.938511E-2,-3.6009172E-1,7.673857E-2,-2.6459974E-1,8.3371776E-1,-3.8215127E-2,3.6503956E-1,-5.8985347E-1],"categories":[],"categories_nodes":[],"categories_segments":[],"categories_sizes":[],"default_left":[0,0,0,0,0,0,0,0,0,0,0,0,0,0,0],"id":63,"left_children":[1,3,5,7,9,11,13,-1,-1,-1,-1,-1,-1,-1,-1],"loss_changes":[4.2511353E3,8.162668E2,1.1554675E3,1.8237262E2,8.814619E2,5.7379443E2,1.2146707E3,0E0,0E0,0E0,0E0,0E0,0E0,0E0,0E0],"parents":[2147483647,0,0,1,1,2,2,3,3,4,4,5,5,6,6],"right_children":[2,4,6,8,10,12,14,-1,-1,-1,-1,-1,-1,-1,-1],"split_conditions":[2.5571428E1,7.1428573E-1,3.05E1,2.8214285E0,1.6E1,3.6E1,3.8E1,-7.938511E-2,-3.6009172E-1,7.673857E-2,-2.6459974E-1,8.3371776E-1,-3.8215127E-2,3.6503956E-1,-5.8985347E-1],"split_indices":[20,19,21,21,10,19,6,0,0,0,0,0,0,0,0],"split_type":[0,0,0,0,0,0,0,0,0,0,0,0,0,0,0],"sum_hessian":[5.49E2,5.05E2,4.4E1,2.94E2,2.11E2,2E1,2.4E1,2.89E2,5E0,1.91E2,2E1,1.8E1,2E0,2.1E1,3E0],"tree_param":{"num_deleted":"0","num_feature":"30","num_nodes":"15","size_leaf_vector":"1"}},{"base_weights":[2.7911274E-2,-1.0124395E0,8.135599E0,-8.498758E-1,-8.028869E0,1.1919851E1,3.2878602E0,-5.1006813E-2,4.6721455E-1,-1.1311249E-1,-8.777445E-1,3.3992538E-1,1.058461E0,-1.2970209E-1,6.574306E-1],"categories":[],"categories_nodes":[],"categories_segments":[],"categories_sizes":[],"default_left":[0,0,0,0,0,0,0,0,0,0,0,0,0,0,0],"id":64,"left_children":[1,3,5,7,9,11,13,-1,-1,-1,-1,-1,-1,-1,-1],"loss_changes":[4.672703E3,5.5321936E2,1.1165488E3,8.4438654E2,5.645487E2,1.5140024E3,1.7161074E3,0E0,0E0,0E0,0E0,0E0,0E0,0E0,0E0],"parents":[2147483647,0,0,1,1,2,2,3,3,4,4,5,5,6,6],"right_children":[2,4,6,8,10,12,14,-1,-1,-1,-1,-1,-1,-1,-1],"split_conditions":[6.999215E0,1.7E1,9.585073E0,7.55E1,1.672E2,2.962857E2,1.1284532E1,-5.1006813E-2,4.6721455E-1,-1.1311249E-1,-8.777445E-1,3.3992538E-1,1.058461E0,-1.2970209E-1,6.574306E-1],"split_indices":[24,10,24,4,2,5,24,0,0,0,0,0,0,0,0],"split_type":[0,0,0,0,0,0,0,0,0,0,0,0,0,0,0],"sum_hessian":[5.52E2,4.9E2,6.2E1,4.8E2,1E1,3.4E1,2.8E1,4.73E2,7E0,7E0,3E0,2.3E1,1.1E1,1.8E1,1E1],"tree_param":{"num_deleted":"0","num_feature":"30","num_nodes":"15","size_leaf_vector":"1"}},{"base_weights":[2.4092162E-1,-6.074957E-1,8.540989E0,-1.4760295E0,1.1642071E0,1.418326E1,3.5770063E0,-6.590645E-2,-3.951808E-1,4.7169805E-1,5.447179E-3,8.3317393E-1,-1.1918526E-1,7.9877687E-1,1.6416581E-2],"categories":[],"categories_nodes":[],"categories_segments":[],"categories_sizes":[],"default_left":[0,0,0,0,0,0,0,0,0,0,0,0,0,0,0],"id":65,"left_children":[1,3,5,7,9,11,13,-1,-1,-1,-1,-1,-1,-1,-1],"loss_changes":[3.9486643E3,7.849594E2,1.4056892E3,3.3668463E2,1.4650696E3,1.025874E3,1.1628398E3,0E0,0E0,0E0,0E0,0E0,0E0,0E0,0E0],"parents":[2147483647,0,0,1,1,2,2,3,3,4,4,5,5,6,6],"right_children":[2,4,6,8,10,12,14,-1,-1,-1,-1,-1,-1,-1,-1],"split_conditions":[2.5E1,6.3E1,3.0178572E1,3.642857E0,1.6723347E0,3.6E1,8.071453E0,-6.590645E-2,-3.951808E-1,4.7169805E-1,5.447179E-3,8.3317393E-1,-1.1918526E-1,7.9877687E-1,1.6416581E-2],"split_indices":[20,29,21,20,24,17,24,0,0,0,0,0,0,0,0],"split_type":[0,0,0,0,0,0,0,0,0,0,0,0,0,0,0],"sum_hessian":[5.59E2,5.08E2,5.1E1,3.41E2,1.67E2,2.3E1,2.8E1,3.34E2,7E0,1.8E1,1.49E2,2E1,3E0,5E0,2.3E1],"tree_param":{"num_deleted":"0","num_feature":"30","num_nodes":"15","size_leaf_vector":"1"}},{"base_weights":[1.1273298E-1,-7.9745096E-1,6.4434023E0,-1.2001939E0,2.0887394E0,4.191358E0,1.59953375E1,-4.289855E-2,-3.2292435E-1,3.4684166E-1,-1.6356468E-2,4.1311318E-1,1.8960325E-2,9.368412E-1,2.571394E-1],"categories":[],"categories_nodes":[],"categories_segments":[],"categories_sizes":[],"default_left":[0,0,0,0,0,0,0,0,0,0,0,0,0,0,0],"id":66,"left_children":[1,3,5,7,9,11,13,-1,-1,-1,-1,-1,-1,-1,-1],"loss_changes":[3.208851E3,5.6859204E2,1.4387544E3,7.646484E2,7.0501074E2,8.969635E2,2.904182E2,0E0,0E0,0E0,0E0,0E0,0E0,0E0,0E0],"parents":[2147483647,0,0,1,1,2,2,3,3,4,4,5,5,6,6],"right_children":[2,4,6,8,10,12,14,-1,-1,-1,-1,-1,-1,-1,-1],"split_conditions":[1.1E1,2.7305758E0,2.5E1,3.107143E0,3.5714285E0,1.2E1,3.0214285E1,-4.289855E-2,-3.2292435E-1,3.4684166E-1,-1.6356468E-2,4.1311318E-1,1.8960325E-2,9.368412E-1,2.571394E-1],"split_indices":[6,24,9,21,20,10,20,0,0,0,0,0,0,0,0],"split_type":[0,0,0,0,0,0,0,0,0,0,0,0,0,0,0],"sum_hessian":[5.55E2,4.86E2,6.9E1,4.27E2,5.9E1,5.7E1,1.2E1,4.02E2,2.5E1,1.9E1,4E1,2.7E1,3E1,9E0,3E0],"tree_param":{"num_deleted":"0","num_feature":"30","num_nodes":"15","size_leaf_vector":"1"}},{"base_weights":[3.5826972E-1,-7.9379094E-1,6.4548836E0,-1.4071534E0,7.363843E-1,4.468611E0,1.5823504E1,-5.1935047E-2,-2.308409E-1,3.7130544E-1,3.887069E-3,3.1430668E-1,-5.6174427E-2,9.405255E-1,3.0436966E-1],"categories":[],"categories_nodes":[],"categories_segments":[],"categories_sizes":[],"default_left":[0,0,0,0,0,0,0,0,0,0,0,0,0,0,0],"id":67,"left_children":[1,3,5,7,9,11,13,-1,-1,-1,-1,-1,-1,-1,-1],"loss_changes":[3.8892131E3,4.3840146E2,1.5668508E3,3.8901324E2,5.898454E2,7.591813E2,3.2171997E2,0E0,0E0,0E0,0E0,0E0,0E0,0E0,0E0],"parents":[2147483647,0,0,1,1,2,2,3,3,4,4,5,5,6,6],"right_children":[2,4,6,8,10,12,14,-1,-1,-1,-1,-1,-1,-1,-1],"split_conditions":[8E0,1.6825E2,2.5E1,3.3633568E0,1.8E2,3.0571428E1,3.1428572E1,-5.1935047E-2,-2.308409E-1,3.7130544E-1,3.887069E-3,3.1430668E-1,-5.6174427E-2,9.405255E-1,3.0436966E-1],"split_indices":[6,2,9,25,2,21,21,0,0,0,0,0,0,0,0],"split_type":[0,0,0,0,0,0,0,0,0,0,0,0,0,0,0],"sum_hessian":[5.52E2,4.65E2,8.7E1,3.32E2,1.33E2,7.3E1,1.4E1,2.99E2,3.3E1,1.1E1,1.22E2,5.5E1,1.8E1,1E1,4E0],"tree_param":{"num_deleted":"0","num_feature":"30","num_nodes":"15","size_leaf_vector":"1"}},{"base_weights":[1.8620168E-1,-8.1123304E-1,6.2720213E0,-7.01042E-1,-5.459398E-1,4.6655245E0,1.3168006E1,-5.6596648E-2,1.0891741E-1,3.0437043E-1,-1.810695E-1,2.2428513E-1,8.7465477E-1],"categories":[],"categories_nodes":[],"categories_segments":[],"categories_sizes":[],"default_left":[0,0,0,0,0,0,0,0,0,0,0,0,0],"id":68,"left_children":[1,3,5,7,-1,9,11,-1,-1,-1,-1,-1,-1],"loss_changes":[3.3194216E3,5.158142E2,7.915996E2,5.8063354E2,0E0,7.7615894E2,4.472556E2,0E0,0E0,0E0,0E0,0E0,0E0],"parents":[2147483647,0,0,1,1,2,2,3,3,5,5,6,6],"right_children":[2,4,6,8,-1,10,12,-1,-1,-1,-1,-1,-1],"split_conditions":[7.5E0,5.892857E0,2.4E1,6.06E2,-5.459398E-1,2E1,2.6E1,-5.6596648E-2,1.0891741E-1,3.0437043E-1,-1.810695E-1,2.2428513E-1,8.7465477E-1],"split_indices":[20,21,9,5,0,9,6,0,0,0,0,0,0],"split_type":[0,0,0,0,0,0,0,0,0,0,0,0,0],"sum_hessian":[5.45E2,4.69E2,7.6E1,4.65E2,4E0,6.3E1,1.3E1,4.05E2,6E1,5.4E1,9E0,5E0,8E0],"tree_param":{"num_deleted":"0","num_feature":"30","num_nodes":"13","size_leaf_vector":"1"}},{"base_weights":[5.5600964E-2,-7.630205E-1,6.47164E0,-1.1857467E0,1.7661202E0,1.0651058E1,2.476059E0,-3.7948906E-2,-2.1167786E-1,-8.91502E-3,4.1698417E-1,9.5221245E-1,3.6342993E-1,-2.4539445E-1,4.0875864E-1],"categories":[],"categories_nodes":[],"categories_segments":[],"categories_sizes":[],"default_left":[0,0,0,0,0,0,0,0,0,0,0,0,0,0,0],"id":69,"left_children":[1,3,5,7,9,11,13,-1,-1,-1,-1,-1,-1,-1,-1],"loss_changes":[2.8779502E3,5.2169336E2,1.008978E3,5.3918274E2,8.9621106E2,7.132639E2,1.4288274E3,0E0,0E0,0E0,0E0,0E0,0E0,0E0,0E0],"parents":[2147483647,0,0,1,1,2,2,3,3,4,4,5,5,6,6],"right_children":[2,4,6,8,10,12,14,-1,-1,-1,-1,-1,-1,-1,-1],"split_conditions":[6.999215E0,6.06E2,9.447922E0,2.9820893E0,2.3E1,6.5064073E0,9.744351E0,-3.7948906E-2,-2.1167786E-1,-8.91502E-3,4.1698417E-1,9.5221245E-1,3.6342993E-1,-2.4539445E-1,4.0875864E-1],"split_indices":[24,5,25,25,9,23,25,0,0,0,0,0,0,0,0],"split_type":[0,0,0,0,0,0,0,0,0,0,0,0,0,0,0],"sum_hessian":[5.46E2,4.85E2,6.1E1,4.16E2,6.9E1,2.9E1,3.2E1,3.66E2,5E1,5.4E1,1.5E1,7E0,2.2E1,1.4E1,1.8E1],"tree_param":{"num_deleted":"0","num_feature":"30","num_nodes":"15","size_leaf_vector":"1"}},{"base_weights":[-5.551235E-2,-9.290198E-1,5.732246E0,-6.2654716E-1,-5.1157007E0,4.0332656E0,1.31327505E1,-5.0268795E-2,1.9253547E-1,3.7061894E-1,-3.5850772E-1,2.7437222E-1,-1.893187E-1,7.570269E-1,-2.7401772E-1],"categories":[],"categories_nodes":[],"categories_segments":[],"categories_sizes":[],"default_left":[0,0,0,0,0,0,0,0,0,0,0,0,0,0,0],"id":70,"left_children":[1,3,5,7,9,11,13,-1,-1,-1,-1,-1,-1,-1,-1],"loss_changes":[2.7758215E3,6.008468E2,8.5231055E2,7.60338E2,8.767753E2,7.030469E2,5.688008E2,0E0,0E0,0E0,0E0,0E0,0E0,0E0,0E0],"parents":[2147483647,0,0,1,1,2,2,3,3,4,4,5,5,6,6],"right_children":[2,4,6,8,10,12,14,-1,-1,-1,-1,-1,-1,-1,-1],"split_conditions":[7.428571E0,3.7857144E0,3.8E1,2.6457512E0,5E0,3.257143E1,6.5E1,-5.0268795E-2,1.9253547E-1,3.7061894E-1,-3.5850772E-1,2.7437222E-1,-1.893187E-1,7.570269E-1,-2.7401772E-1],"split_indices":[19,21,16,22,9,19,16,0,0,0,0,0,0,0,0],"split_type":[0,0,0,0,0,0,0,0,0,0,0,0,0,0,0],"sum_hessian":[5.47E2,4.76E2,7.1E1,4.45E2,3.1E1,5.9E1,1.2E1,4.11E2,3.4E1,4E0,2.7E1,5E1,9E0,1.1E1,1E0],"tree_param":{"num_deleted":"0","num_feature":"30","num_nodes":"15","size_leaf_vector":"1"}},{"base_weights":[5.073512E-2,-5.601589E-1,6.4513383E0,-1.3113928E0,9.5915824E-1,1.2715728E1,1.9086099E0,-5.8359332E-2,-3.5479853E-1,8.9786786E-1,1.0707429E-2,7.146339E-1,-4.9227145E-2,4.5774388E-1,-1.1935257E-1],"categories":[],"categories_nodes":[],"categories_segments":[],"categories_sizes":[],"default_left":[0,0,0,0,0,0,0,0,0,0,0,0,0,0,0],"id":71,"left_children":[1,3,5,7,9,11,13,-1,-1,-1,-1,-1,-1,-1,-1],"loss_changes":[2.1541636E3,5.753631E2,1.3416866E3,2.728335E2,2.1110127E3,4.4616455E2,9.2455096E2,0E0,0E0,0E0,0E0,0E0,0E0,0E0,0E0],"parents":[2147483647,0,0,1,1,2,2,3,3,4,4,5,5,6,6],"right_children":[2,4,6,8,10,12,14,-1,-1,-1,-1,-1,-1,-1,-1],"split_conditions":[2.5071428E1,6.3E1,9.447922E0,3.642857E0,1.9612651E0,4.7E1,8.158121E0,-5.8359332E-2,-3.5479853E-1,8.9786786E-1,1.0707429E-2,7.146339E-1,-4.9227145E-2,4.5774388E-1,-1.1935257E-1],"split_indices":[20,29,25,20,25,6,24,0,0,0,0,0,0,0,0],"split_type":[0,0,0,0,0,0,0,0,0,0,0,0,0,0,0],"sum_hessian":[5.49E2,5.02E2,4.7E1,3.36E2,1.66E2,1.9E1,2.8E1,3.29E2,7E0,6E0,1.6E2,1.7E1,2E0,1E1,1.8E1],"tree_param":{"num_deleted":"0","num_feature":"30","num_nodes":"15","size_leaf_vector":"1"}},{"base_weights":[-5.3650793E-3,-8.104202E-1,5.630099E0,-5.550462E-1,-4.166535E0,6.13725E0,-7.21405E-1,-5.4026414E-2,1.6592495E-1,3.8468203E-1,-3.2383454E-1,3.7052473E-1,-1.5164812E-1],"categories":[],"categories_nodes":[],"categories_segments":[],"categories_sizes":[],"default_left":[0,0,0,0,0,0,0,0,0,0,0,0,0],"id":72,"left_children":[1,3,5,7,9,11,-1,-1,-1,-1,-1,-1,-1],"loss_changes":[2.504372E3,4.1164957E2,7.9045435E2,9.195512E2,9.813902E2,8.164385E2,0E0,0E0,0E0,0E0,0E0,0E0,0E0],"parents":[2147483647,0,0,1,1,2,2,3,3,4,4,5,5],"right_children":[2,4,6,8,10,12,-1,-1,-1,-1,-1,-1,-1],"split_conditions":[7.5E0,3.7857144E0,1.7E1,2.511512E0,5E0,3.2892857E1,-7.21405E-1,-5.4026414E-2,1.6592495E-1,3.8468203E-1,-3.2383454E-1,3.7052473E-1,-1.5164812E-1],"split_indices":[20,21,10,24,9,21,0,0,0,0,0,0,0],"split_type":[0,0,0,0,0,0,0,0,0,0,0,0,0],"sum_hessian":[5.5E2,4.82E2,6.8E1,4.49E2,3.3E1,6.7E1,1E0,3.96E2,5.3E1,5E0,2.8E1,5.9E1,8E0],"tree_param":{"num_deleted":"0","num_feature":"30","num_nodes":"13","size_leaf_vector":"1"}},{"base_weights":[1.6178869E-1,-6.455605E-1,4.814508E0,-1.1296681E0,8.29021E-1,3.4945114E0,1.3837032E1,-6.39066E-2,2.7070215E-1,-3.2093138E-2,4.7162563E-1,1.9699973E-1,-7.033699E-1,7.292537E-1,1.776165E-1],"categories":[],"categories_nodes":[],"categories_segments":[],"categories_sizes":[],"default_left":[0,0,0,0,0,0,0,0,0,0,0,0,0,0,0],"id":73,"left_children":[1,3,5,7,9,11,13,-1,-1,-1,-1,-1,-1,-1,-1],"loss_changes":[2.0578418E3,3.343073E2,9.163323E2,3.4888937E2,1.4740035E3,6.187201E2,2.5122803E1,0E0,0E0,0E0,0E0,0E0,0E0,0E0,0E0],"parents":[2147483647,0,0,1,1,2,2,3,3,4,4,5,5,6,6],"right_children":[2,4,6,8,10,12,14,-1,-1,-1,-1,-1,-1,-1,-1],"split_conditions":[8E0,2.1E1,2.7E1,1.05E2,7E0,1.7E1,3.1E1,-6.39066E-2,2.7070215E-1,-3.2093138E-2,4.7162563E-1,1.9699973E-1,-7.033699E-1,7.292537E-1,1.776165E-1],"split_indices":[13,9,9,28,0,10,14,0,0,0,0,0,0,0,0],"split_type":[0,0,0,0,0,0,0,0,0,0,0,0,0,0,0],"sum_hessian":[5.46E2,4.66E2,8E1,3.51E2,1.15E2,7.1E1,9E0,3.44E2,7E0,9.9E1,1.6E1,7E1,1E0,8E0,1E0],"tree_param":{"num_deleted":"0","num_feature":"30","num_nodes":"15","size_leaf_vector":"1"}},{"base_weights":[-1.4189397E-1,-5.0157475E-1,8.874011E0,-7.7565116E-1,3.038555E0,1.2683079E1,3.4157288E0,-3.137231E-2,-3.5793963E-1,-4.98296E-2,5.437557E-1,7.5286317E-1,2.7071891E-2,4.8449764E-1,-3.2875173E-2],"categories":[],"categories_nodes":[],"categories_segments":[],"categories_sizes":[],"default_left":[0,0,0,0,0,0,0,0,0,0,0,0,0,0,0],"id":74,"left_children":[1,3,5,7,9,11,13,-1,-1,-1,-1,-1,-1,-1,-1],"loss_changes":[1.7750459E3,5.1271674E2,3.9328833E2,4.5810886E2,1.2124613E3,3.3776526E2,2.619349E2,0E0,0E0,0E0,0E0,0E0,0E0,0E0,0E0],"parents":[2147483647,0,0,1,1,2,2,3,3,4,4,5,5,6,6],"right_children":[2,4,6,8,10,12,14,-1,-1,-1,-1,-1,-1,-1,-1],"split_conditions":[3.3E1,2.8E1,9.793753E0,1.7E1,6.3E1,3.4E1,9.447922E0,-3.137231E-2,-3.5793963E-1,-4.98296E-2,5.437557E-1,7.5286317E-1,2.7071891E-2,4.8449764E-1,-3.2875173E-2],"split_indices":[16,9,24,10,29,6,25,0,0,0,0,0,0,0,0],"split_type":[0,0,0,0,0,0,0,0,0,0,0,0,0,0,0],"sum_hessian":[5.45E2,5.25E2,2E1,4.88E2,3.7E1,1.1E1,9E0,4.78E2,1E1,2.5E1,1.2E1,9E0,2E0,3E0,6E0],"tree_param":{"num_deleted":"0","num_feature":"30","num_nodes":"15","size_leaf_vector":"1"}},{"base_weights":[1.7514451E-1,-4.3433002E-1,6.388282E0,-3.4451652E-1,-1.1709611E1,1.1580138E1,1.1504095E0,-3.2577556E-2,1.9073404E-1,-1.3695383E-1,-6.8933815E-1,7.139391E-1,1.3004717E-1,1.5062438E-1,-7.0648426E-1],"categories":[],"categories_nodes":[],"categories_segments":[],"categories_sizes":[],"default_left":[0,0,0,0,0,0,0,0,0,0,0,0,0,0,0],"id":75,"left_children":[1,3,5,7,9,11,13,-1,-1,-1,-1,-1,-1,-1,-1],"loss_changes":[2.1195671E3,5.124289E2,1.3463922E3,6.499334E2,3.6769653E1,5.686526E2,7.8233636E2,0E0,0E0,0E0,0E0,0E0,0E0,0E0,0E0],"parents":[2147483647,0,0,1,1,2,2,3,3,4,4,5,5,6,6],"right_children":[2,4,6,8,10,12,14,-1,-1,-1,-1,-1,-1,-1,-1],"split_conditions":[3.51E2,2.3607143E1,3.0178572E1,8E0,2.3236363E2,3.5E1,3.8E1,-3.2577556E-2,1.9073404E-1,-1.3695383E-1,-6.8933815E-1,7.139391E-1,1.3004717E-1,1.5062438E-1,-7.0648426E-1],"split_indices":[28,21,21,6,2,17,6,0,0,0,0,0,0,0,0],"split_type":[0,0,0,0,0,0,0,0,0,0,0,0,0,0,0],"sum_hessian":[5.58E2,5.09E2,4.9E1,5.06E2,3E0,2.4E1,2.5E1,4.72E2,3.4E1,1E0,2E0,1.8E1,6E0,2.3E1,2E0],"tree_param":{"num_deleted":"0","num_feature":"30","num_nodes":"15","size_leaf_vector":"1"}},{"base_weights":[2.4816675E-1,-3.5947677E-1,7.202807E0,-2.1818969E-1,-7.3172393E0,9.893049E0,2.6610155E-2,-2.6554326E-2,1.9546711E-1,-7.117114E-2,-7.9010546E-1,6.921472E-1,1.0781574E-1,-3.3423653E-1,4.4853148E-1],"categories":[],"categories_nodes":[],"categories_segments":[],"categories_sizes":[],"default_left":[0,0,0,0,0,0,0,0,0,0,0,0,0,0,0],"id":76,"left_children":[1,3,5,7,9,11,13,-1,-1,-1,-1,-1,-1,-1,-1],"loss_changes":[2.3141794E3,4.9385657E2,8.49188E2,6.4136456E2,4.7758954E2,9.480471E2,8.403089E2,0E0,0E0,0E0,0E0,0E0,0E0,0E0,0E0],"parents":[2147483647,0,0,1,1,2,2,3,3,4,4,5,5,6,6],"right_children":[2,4,6,8,10,12,14,-1,-1,-1,-1,-1,-1,-1,-1],"split_conditions":[3.7E2,1.7E1,3.4E1,8E0,1.672E2,3.1857143E1,9E0,-2.6554326E-2,1.9546711E-1,-7.117114E-2,-7.9010546E-1,6.921472E-1,1.0781574E-1,-3.3423653E-1,4.4853148E-1],"split_indices":[28,10,15,6,2,21,9,0,0,0,0,0,0,0,0],"split_type":[0,0,0,0,0,0,0,0,0,0,0,0,0,0,0],"sum_hessian":[5.46E2,5.03E2,4.3E1,4.94E2,9E0,3.1E1,1.2E1,4.6E2,3.4E1,6E0,3E0,2E1,1.1E1,7E0,5E0],"tree_param":{"num_deleted":"0","num_feature":"30","num_nodes":"15","size_leaf_vector":"1"}},{"base_weights":[8.296339E-2,-2.0103791E-1,1.0206813E1,-3.5122043E-1,8.615321E0,-5.166702E-1,1.2930739E1,-1.3457282E-2,-5.507608E-1,7.4993134E-1,1.4619485E-1,-6.783854E-2,5.009079E-2,7.0514894E-1,9.025574E-4],"categories":[],"categories_nodes":[],"categories_segments":[],"categories_sizes":[],"default_left":[0,0,0,0,0,0,0,0,0,0,0,0,0,0,0],"id":77,"left_children":[1,3,5,7,9,11,13,-1,-1,-1,-1,-1,-1,-1,-1],"loss_changes":[1.5805293E3,7.113996E2,4.4483057E2,4.5828964E2,2.8311646E2,6.461959E0,1.8138684E2,0E0,0E0,0E0,0E0,0E0,0E0,0E0,0E0],"parents":[2147483647,0,0,1,1,2,2,3,3,4,4,5,5,6,6],"right_children":[2,4,6,8,10,12,14,-1,-1,-1,-1,-1,-1,-1,-1],"split_conditions":[3.5E1,1.1480514E1,1.7E1,4.2E1,1.1691314E1,1.6E1,3.4E1,-1.3457282E-2,-5.507608E-1,7.4993134E-1,1.4619485E-1,-6.783854E-2,5.009079E-2,7.0514894E-1,9.025574E-4],"split_indices":[16,24,13,17,24,6,6,0,0,0,0,0,0,0,0],"split_type":[0,0,0,0,0,0,0,0,0,0,0,0,0,0,0],"sum_hessian":[5.48E2,5.34E2,1.4E1,5.26E2,8E0,3E0,1.1E1,5.23E2,3E0,3E0,5E0,2E0,1E0,1E1,1E0],"tree_param":{"num_deleted":"0","num_feature":"30","num_nodes":"15","size_leaf_vector":"1"}},{"base_weights":[-2.992536E-3,-5.036634E-1,5.582336E0,-3.6876836E-1,-6.4913645E0,9.104831E0,-1.3712378E0,-3.720511E-2,1.1231774E-1,-6.62954E-2,-7.599718E-1,6.5798336E-1,4.523447E-2,1.538196E-1,-3.1017086E-1],"categories":[],"categories_nodes":[],"categories_segments":[],"categories_sizes":[],"default_left":[0,0,0,0,0,0,0,0,0,0,0,0,0,0,0],"id":78,"left_children":[1,3,5,7,9,11,13,-1,-1,-1,-1,-1,-1,-1,-1],"loss_changes":[1.5296523E3,4.030773E2,1.1147115E3,4.8459128E2,4.7463983E2,9.8560156E2,3.6295206E2,0E0,0E0,0E0,0E0,0E0,0E0,0E0,0E0],"parents":[2147483647,0,0,1,1,2,2,3,3,4,4,5,5,6,6],"right_children":[2,4,6,8,10,12,14,-1,-1,-1,-1,-1,-1,-1,-1],"split_conditions":[2.6428572E1,1.7E1,3.1571428E1,4E0,1.672E2,3.4E1,3E1,-3.720511E-2,1.1231774E-1,-6.62954E-2,-7.599718E-1,6.5798336E-1,4.523447E-2,1.538196E-1,-3.1017086E-1],"split_indices":[20,10,21,19,2,15,6,0,0,0,0,0,0,0,0],"split_type":[0,0,0,0,0,0,0,0,0,0,0,0,0,0,0],"sum_hessian":[5.45E2,5.01E2,4.4E1,4.91E2,1E1,2.9E1,1.5E1,4.3E2,6.1E1,7E0,3E0,1.9E1,1E1,8E0,7E0],"tree_param":{"num_deleted":"0","num_feature":"30","num_nodes":"15","size_leaf_vector":"1"}},{"base_weights":[1.798525E-1,-4.3773293E-1,5.1574793E0,-9.1648835E-1,1.0531361E0,1.0503036E1,1.005049E0,-2.640833E-2,-1.7916435E-1,4.215973E-1,9.2751085E-4,3.6723924E-1,6.6696227E-1,3.515854E-1,-2.0839317E-1],"categories":[],"categories_nodes":[],"categories_segments":[],"categories_sizes":[],"default_left":[0,0,0,0,0,0,0,0,0,0,0,0,0,0,0],"id":79,"left_children":[1,3,5,7,9,11,13,-1,-1,-1,-1,-1,-1,-1,-1],"loss_changes":[1.7268333E3,3.57846E2,1.3656611E3,3.9059064E2,9.311931E2,1.4387769E2,1.1516207E3,0E0,0E0,0E0,0E0,0E0,0E0,0E0,0E0],"parents":[2147483647,0,0,1,1,2,2,3,3,4,4,5,5,6,6],"right_children":[2,4,6,8,10,12,14,-1,-1,-1,-1,-1,-1,-1,-1],"split_conditions":[5.12E2,5.828E1,9.447922E0,8.1E1,5.95E1,1.665019E2,8.458041E0,-2.640833E-2,-1.7916435E-1,4.215973E-1,9.2751085E-4,3.6723924E-1,6.6696227E-1,3.515854E-1,-2.0839317E-1],"split_indices":[29,4,25,29,4,3,24,0,0,0,0,0,0,0,0],"split_type":[0,0,0,0,0,0,0,0,0,0,0,0,0,0,0],"sum_hessian":[5.6E2,4.99E2,6.1E1,3.78E2,1.21E2,2.6E1,3.5E1,3.31E2,4.7E1,1.4E1,1.07E2,1.4E1,1.2E1,1.6E1,1.9E1],"tree_param":{"num_deleted":"0","num_feature":"30","num_nodes":"15","size_leaf_vector":"1"}},{"base_weights":[1.0653183E-1,-1.6311814E-1,9.627062E0,-3.0297527E-1,7.9667187E0,1.1102199E1,-2.756214E-1,-8.248142E-3,-3.6763573E-1,6.8217164E-1,1.4272283E-1,6.032774E-1,-3.553314E-2],"categories":[],"categories_nodes":[],"categories_segments":[],"categories_sizes":[],"default_left":[0,0,0,0,0,0,0,0,0,0,0,0,0],"id":80,"left_children":[1,3,5,7,9,11,-1,-1,-1,-1,-1,-1,-1],"loss_changes":[1.398133E3,6.0503204E2,3.9619226E2,5.0666782E2,2.2224298E2,1.6789331E2,0E0,0E0,0E0,0E0,0E0,0E0,0E0],"parents":[2147483647,0,0,1,1,2,2,3,3,4,4,5,5],"right_children":[2,4,6,8,10,12,-1,-1,-1,-1,-1,-1,-1],"split_conditions":[3.5E1,1.1480514E1,6.5E1,3.1178572E1,1.1691314E1,1.8342E2,-2.756214E-1,-8.248142E-3,-3.6763573E-1,6.8217164E-1,1.4272283E-1,6.032774E-1,-3.553314E-2],"split_indices":[16,24,16,21,24,3,0,0,0,0,0,0,0],"split_type":[0,0,0,0,0,0,0,0,0,0,0,0,0],"sum_hessian":[5.43E2,5.29E2,1.4E1,5.21E2,8E0,1.3E1,1E0,5.12E2,9E0,3E0,5E0,1.2E1,1E0],"tree_param":{"num_deleted":"0","num_feature":"30","num_nodes":"13","size_leaf_vector":"1"}},{"base_weights":[1.04557686E-1,-7.174862E-1,2.7442703E0,-3.2549062E-1,-4.18318E0,1.257616E-1,4.73266E0,-5.1496636E-2,1.0374867E-1,-2.3553526E-1,4.4932237E-1,3.712427E-1,-1.2965523E-1,5.568029E-1,1.6681013E-1],"categories":[],"categories_nodes":[],"categories_segments":[],"categories_sizes":[],"default_left":[0,0,0,0,0,0,0,0,0,0,0,0,0,0,0],"id":81,"left_children":[1,3,5,7,9,11,13,-1,-1,-1,-1,-1,-1,-1,-1],"loss_changes":[1.2062966E3,5.7465796E2,6.866781E2,6.4809454E2,3.4106702E2,1.1702781E3,6.335033E2,0E0,0E0,0E0,0E0,0E0,0E0,0E0,0E0],"parents":[2147483647,0,0,1,1,2,2,3,3,4,4,5,5,6,6],"right_children":[2,4,6,8,10,12,14,-1,-1,-1,-1,-1,-1,-1,-1],"split_conditions":[2.7305758E0,2.892857E0,1.1E1,1E0,8E0,5E0,2.9744947E0,-5.1496636E-2,1.0374867E-1,-2.3553526E-1,4.4932237E-1,3.712427E-1,-1.2965523E-1,5.568029E-1,1.6681013E-1],"split_indices":[24,21,9,21,15,9,25,0,0,0,0,0,0,0,0],"split_type":[0,0,0,0,0,0,0,0,0,0,0,0,0,0,0],"sum_hessian":[5.54E2,4.23E2,1.31E2,3.81E2,4.2E1,5.7E1,7.4E1,2.95E2,8.6E1,4.1E1,1E0,1.5E1,4.2E1,1.2E1,6.2E1],"tree_param":{"num_deleted":"0","num_feature":"30","num_nodes":"15","size_leaf_vector":"1"}},{"base_weights":[8.309285E-2,-4.5333222E-1,3.2670782E0,-3.5894707E-1,-7.77128E0,2.1258245E0,1.1043272E1,-2.807082E-2,1.8947916E-1,3.3366777E-2,-4.7962353E-1,2.2965768E-1,-1.2988937E-1,6.0671186E-1,2.2264703E-1],"categories":[],"categories_nodes":[],"categories_segments":[],"categories_sizes":[],"default_left":[0,0,0,0,0,0,0,0,0,0,0,0,0,0,0],"id":82,"left_children":[1,3,5,7,9,11,13,-1,-1,-1,-1,-1,-1,-1,-1],"loss_changes":[9.4769617E2,3.2529562E2,6.864927E2,3.96904E2,9.861136E1,8.3941614E2,1.7865234E1,0E0,0E0,0E0,0E0,0E0,0E0,0E0,0E0],"parents":[2147483647,0,0,1,1,2,2,3,3,4,4,5,5,6,6],"right_children":[2,4,6,8,10,12,14,-1,-1,-1,-1,-1,-1,-1,-1],"split_conditions":[8E0,5.821429E0,2.7E1,4.285714E0,1E0,9.447922E0,3.1E1,-2.807082E-2,1.8947916E-1,3.3366777E-2,-4.7962353E-1,2.2965768E-1,-1.2988937E-1,6.0671186E-1,2.2264703E-1],"split_indices":[13,21,9,19,0,25,9,0,0,0,0,0,0,0,0],"split_type":[0,0,0,0,0,0,0,0,0,0,0,0,0,0,0],"sum_hessian":[5.53E2,4.74E2,7.9E1,4.69E2,5E0,7E1,9E0,4.48E2,2.1E1,1E0,4E0,4.6E1,2.4E1,7E0,2E0],"tree_param":{"num_deleted":"0","num_feature":"30","num_nodes":"15","size_leaf_vector":"1"}},{"base_weights":[1.2397499E-1,-9.9184334E-2,1.0397569E1,-8.577037E-1,1.1533916E0,1.2738308E1,2.5315132E0,-3.6015183E-2,-3.2778218E-1,7.273074E-2,-7.32398E-1,2.504453E-1,7.1155757E-1,3.3616257E-1,-5.5340834E-2],"categories":[],"categories_nodes":[],"categories_segments":[],"categories_sizes":[],"default_left":[0,0,0,0,0,0,0,0,0,0,0,0,0,0,0],"id":83,"left_children":[1,3,5,7,9,11,13,-1,-1,-1,-1,-1,-1,-1,-1],"loss_changes":[1.294085E3,5.2639624E2,1.8870142E2,2.653775E2,1.016092E3,3.256665E1,6.844511E1,0E0,0E0,0E0,0E0,0E0,0E0,0E0,0E0],"parents":[2147483647,0,0,1,1,2,2,3,3,4,4,5,5,6,6],"right_children":[2,4,6,8,10,12,14,-1,-1,-1,-1,-1,-1,-1,-1],"split_conditions":[3.8E1,6.3E1,3.3E1,3.642857E0,1.7E1,2.4E1,5.519149E1,-3.6015183E-2,-3.2778218E-1,7.273074E-2,-7.32398E-1,2.504453E-1,7.1155757E-1,3.3616257E-1,-5.5340834E-2],"split_indices":[16,29,18,20,10,15,4,0,0,0,0,0,0,0,0],"split_type":[0,0,0,0,0,0,0,0,0,0,0,0,0,0,0],"sum_hessian":[5.63E2,5.52E2,1.1E1,3.44E2,2.08E2,8E0,3E0,3.37E2,7E0,2.05E2,3E0,2E0,6E0,1E0,2E0],"tree_param":{"num_deleted":"0","num_feature":"30","num_nodes":"15","size_leaf_vector":"1"}},{"base_weights":[1.2187142E-1,-3.3246136E-1,5.0396056E0,-2.2249074E-1,-8.18714E0,1.3549754E1,2.6674716E0,-1.8975869E-2,3.417692E-1,-1.9218811E-1,-6.3485295E-1,7.3003924E-1,1.0226212E-1,3.7794477E-1,-6.167568E-2],"categories":[],"categories_nodes":[],"categories_segments":[],"categories_sizes":[],"default_left":[0,0,0,0,0,0,0,0,0,0,0,0,0,0,0],"id":84,"left_children":[1,3,5,7,9,11,13,-1,-1,-1,-1,-1,-1,-1,-1],"loss_changes":[1.2417052E3,4.3784445E2,9.126554E2,5.600561E2,8.831351E1,9.105371E1,7.344162E2,0E0,0E0,0E0,0E0,0E0,0E0,0E0,0E0],"parents":[2147483647,0,0,1,1,2,2,3,3,4,4,5,5,6,6],"right_children":[2,4,6,8,10,12,14,-1,-1,-1,-1,-1,-1,-1,-1],"split_conditions":[2.6428572E1,8.512906E0,2.8571428E1,4.59E2,1.9E1,3.1E1,1.2E1,-1.8975869E-2,3.417692E-1,-1.9218811E-1,-6.3485295E-1,7.3003924E-1,1.0226212E-1,3.7794477E-1,-6.167568E-2],"split_indices":[20,25,20,29,9,9,10,0,0,0,0,0,0,0,0],"split_type":[0,0,0,0,0,0,0,0,0,0,0,0,0,0,0],"sum_hessian":[5.54E2,5.08E2,4.6E1,5.02E2,6E0,9E0,3.7E1,4.92E2,1E1,4E0,2E0,8E0,1E0,1.6E1,2.1E1],"tree_param":{"num_deleted":"0","num_feature":"30","num_nodes":"15","size_leaf_vector":"1"}},{"base_weights":[9.99525E-2,-4.994916E-1,3.8248758E0,-1.4112602E-1,-2.9327707E0,5.2876425E0,-3.4456174E0,-2.3198701E-2,3.8382903E-1,-2.9276976E-1,2.5605658E-2,3.0308658E-1,-3.726038E-1,2.583582E-1,-5.783084E-1],"categories":[],"categories_nodes":[],"categories_segments":[],"categories_sizes":[],"default_left":[0,0,0,0,0,0,0,0,0,0,0,0,0,0,0],"id":85,"left_children":[1,3,5,7,9,11,13,-1,-1,-1,-1,-1,-1,-1,-1],"loss_changes":[1.1920372E3,4.0070776E2,8.052119E2,1.0181819E3,5.970166E2,6.565962E2,9.689912E2,0E0,0E0,0E0,0E0,0E0,0E0,0E0,0E0],"parents":[2147483647,0,0,1,1,2,2,3,3,4,4,5,5,6,6],"right_children":[2,4,6,8,10,12,14,-1,-1,-1,-1,-1,-1,-1,-1],"split_conditions":[3.5118847E0,2.9820893E0,1.5E1,2.7120588E0,3.795012E0,4.7E1,2.2E1,-2.3198701E-2,3.8382903E-1,-2.9276976E-1,2.5605658E-2,3.0308658E-1,-3.726038E-1,2.583582E-1,-5.783084E-1],"split_indices":[23,25,10,25,25,6,13,0,0,0,0,0,0,0,0],"split_type":[0,0,0,0,0,0,0,0,0,0,0,0,0,0,0],"sum_hessian":[5.32E2,4.59E2,7.3E1,4.01E2,5.8E1,6.1E1,1.2E1,3.86E2,1.5E1,3.1E1,2.7E1,5.8E1,3E0,6E0,6E0],"tree_param":{"num_deleted":"0","num_feature":"30","num_nodes":"15","size_leaf_vector":"1"}},{"base_weights":[6.1476976E-2,-3.4523416E-1,4.1114335E0,-2.4496683E-1,-7.4865146E0,1.2261748E1,1.8244848E0,-2.6775276E-2,9.32132E-2,-1.674075E-1,-5.944142E-1,6.559705E-1,9.212837E-2,3.4074268E-1,-1.1886593E-1],"categories":[],"categories_nodes":[],"categories_segments":[],"categories_sizes":[],"default_left":[0,0,0,0,0,0,0,0,0,0,0,0,0,0,0],"id":86,"left_children":[1,3,5,7,9,11,13,-1,-1,-1,-1,-1,-1,-1,-1],"loss_changes":[9.205361E2,3.6191287E2,9.282355E2,3.0863055E2,8.770914E1,7.4124146E1,8.759115E2,0E0,0E0,0E0,0E0,0E0,0E0,0E0,0E0],"parents":[2147483647,0,0,1,1,2,2,3,3,4,4,5,5,6,6],"right_children":[2,4,6,8,10,12,14,-1,-1,-1,-1,-1,-1,-1,-1],"split_conditions":[2.6428572E1,2.4642857E1,2.8714285E1,2.6457512E0,1.9E1,3.1E1,1.2E1,-2.6775276E-2,9.32132E-2,-1.674075E-1,-5.944142E-1,6.559705E-1,9.212837E-2,3.4074268E-1,-1.1886593E-1],"split_indices":[20,21,20,22,9,9,10,0,0,0,0,0,0,0,0],"split_type":[0,0,0,0,0,0,0,0,0,0,0,0,0,0,0],"sum_hessian":[5.57E2,5.07E2,5E1,5.01E2,6E0,1E1,4E1,4.41E2,6E1,4E0,2E0,9E0,1E0,1.8E1,2.2E1],"tree_param":{"num_deleted":"0","num_feature":"30","num_nodes":"15","size_leaf_vector":"1"}},{"base_weights":[-1.4385864E-2,-3.520947E-1,3.5421886E0,-2.5712493E-1,-7.221022E0,1.1716665E1,1.1457418E0,-1.9906227E-2,3.087661E-1,-1.6071129E-1,-5.746004E-1,6.264516E-1,8.982506E-2,3.115598E-1,-8.183233E-2],"categories":[],"categories_nodes":[],"categories_segments":[],"categories_sizes":[],"default_left":[0,0,0,0,0,0,0,0,0,0,0,0,0,0,0],"id":87,"left_children":[1,3,5,7,9,11,13,-1,-1,-1,-1,-1,-1,-1,-1],"loss_changes":[6.786601E2,3.3475098E2,9.464709E2,4.650145E2,8.2852905E1,6.613867E1,5.620369E2,0E0,0E0,0E0,0E0,0E0,0E0,0E0,0E0],"parents":[2147483647,0,0,1,1,2,2,3,3,4,4,5,5,6,6],"right_children":[2,4,6,8,10,12,14,-1,-1,-1,-1,-1,-1,-1,-1],"split_conditions":[2.6428572E1,2.4642857E1,2.8714285E1,4.59E2,1.9E1,3.1E1,9.447922E0,-1.9906227E-2,3.087661E-1,-1.6071129E-1,-5.746004E-1,6.264516E-1,8.982506E-2,3.115598E-1,-8.183233E-2],"split_indices":[20,21,20,29,9,9,25,0,0,0,0,0,0,0,0],"split_type":[0,0,0,0,0,0,0,0,0,0,0,0,0,0,0],"sum_hessian":[5.63E2,5.15E2,4.8E1,5.09E2,6E0,1E1,3.8E1,4.99E2,1E1,4E0,2E0,9E0,1E0,1.3E1,2.5E1],"tree_param":{"num_deleted":"0","num_feature":"30","num_nodes":"15","size_leaf_vector":"1"}},{"base_weights":[2.18714E-2,-1.8904167E-1,6.5837035E0,-2.8330144E-1,9.746042E0,3.3572235E0,6.827905E-1,-7.156029E-3,-2.69484E-1,5.6846756E-1,8.132019E-2,2.9522866E-1,-1.9252281E-1],"categories":[],"categories_nodes":[],"categories_segments":[],"categories_sizes":[],"default_left":[0,0,0,0,0,0,0,0,0,0,0,0,0],"id":88,"left_children":[1,3,5,7,9,11,-1,-1,-1,-1,-1,-1,-1],"loss_changes":[7.5551166E2,4.9815823E2,3.420605E2,3.7503232E2,4.7412262E1,2.614215E2,0E0,0E0,0E0,0E0,0E0,0E0,0E0],"parents":[2147483647,0,0,1,1,2,2,3,3,4,4,5,5],